tree
version=v4
num_class=6
num_tree_per_iteration=6
label_index=0
max_feature_idx=7
objective=multiclass num_class:6
feature_names=source_entity_score domain_score title_body_consistency evidence_quality ad_promo_intensity hyperbole_score emotive_clickbait_density title_body_embedding_cosine
feature_infos=[0.10000000000000001:1] [0.17000000000000001:1] [0.51000000000000001:1] [0.10000000000000001:1] [0:0.90000000000000002] [0:0.93999999999999995] [0:0.88] [0.68999999999999995:1]
tree_sizes=242 646 744 843 842 749 224 771 772 766 767 878 225 773 879 770 772 872 225 988 875 977 768 877 225 762 878 866 865 777 225 875 878 980 766 776 225 874 876 757 871 880 225 872 772 874 876 671 225 877 773 764 974 882 225 978 770 772 769 775 225 982 875 767 874 875 225 871 770 663 770 874 225 771 772 772 875 771 225 871 773 872 765 673 225 878 878 872 768 876 225 978 872 768 766 879 225 872 877 872 771 877 226 865 870 873 978 879 226 775 770 770 769 880 226 882 882 756 772 779 226 980 879 770 873 774 226 769 771 771 770 874 226 772 872 771 665 879 226 877 771 770 870 774 226 876 875 774 767 877 226 982 880 974 877 875 226 983 878 774 775 771 226 981 877 857 877 975 226 978 872 877 774 667 226 981 882 774 669 872 226 873 867 775 666 876 226 984 879 769 771 775 226 880 666 655 878 867 226 983 973 773 771 988 226 977 873 863 768 878 226 869 773 757 873 881 226 769 773 858 874 875 226 875 770 667 773 778 226 773 875 876 876 772 226 983 874 768 876 770 226 984 884 879 871 874 226 983 773 768 874 881 226 868 873 862 1084 872 226 983 984 776 769 987 226 984 871 770 875 878 226 867 985 874 766 876 226 875 774 875 879 877 226 977 777 871 774 880 226 877 881 772 875 885

Tree=0
num_leaves=1
num_cat=0
split_feature=
split_gain=
threshold=
decision_type=
left_child=
right_child=
leaf_value=-34.538776391283193
leaf_weight=
leaf_count=210
internal_value=
internal_weight=
internal_count=
is_linear=0
shrinkage=1


Tree=1
num_leaves=5
num_cat=0
split_feature=0 6 5 1
split_gain=9.95951 4.62385 7.21496 2.66269
threshold=0.44500000000000006 0.35500000000000004 0.28500000000000009 0.65500000000000014
decision_type=2 2 2 2
left_child=-1 3 -3 -2
right_child=1 2 -4 -5
leaf_value=-1.7567337127137486 -1.8232215544666779 -1.7534843069137933 -1.8448738450375333 -1.8704629157121804
leaf_weight=4.3964082598686245 4.2335783243179348 3.4194286465644819 5.8618776798248291 10.095456004142759
leaf_count=27 26 21 36 62
internal_value=-1.82583 -1.8387 -1.8112 -1.85651
internal_weight=28.0067 23.6103 9.28131 14.329
internal_count=172 145 57 88
is_linear=0
shrinkage=1


Tree=2
num_leaves=6
num_cat=0
split_feature=3 6 3 2 2
split_gain=22.7522 8.39061 3.47785 2.09073 0.496323
threshold=0.42500000000000004 0.40500000000000008 0.58500000000000008 0.88500000000000012 0.95500000000000007
decision_type=2 2 2 2 2
left_child=-1 3 -3 -2 -5
right_child=1 2 -4 4 -6
leaf_value=-1.6378701959174589 -1.764985463963235 -1.6965387811693553 -1.7605408741714246 -1.8138759516731489 -1.7936454050345638
leaf_weight=3.4089794754982021 4.0907753705978456 3.4089794754981977 5.6248161345720291 7.840652793645857 4.9430202394723892
leaf_count=20 24 20 33 46 29
internal_value=-1.7593 -1.77528 -1.73639 -1.7961 -1.80605
internal_weight=29.3172 25.9082 9.0338 16.8744 12.7837
internal_count=172 152 53 99 75
is_linear=0
shrinkage=1


Tree=3
num_leaves=7
num_cat=0
split_feature=1 2 5 1 3 6
split_gain=7.86992 12.129 9.70318 4.41152 2.81916 0.988002
threshold=0.74500000000000011 0.83500000000000008 0.44500000000000006 0.54500000000000015 0.65500000000000014 0.21000000000000005
decision_type=2 2 2 2 2 2
left_child=1 -1 3 -3 -2 -6
right_child=4 2 -4 -5 5 -7
leaf_value=-1.6059527977818988 -1.5527351202217383 -1.5078111066969275 -1.4583946918196355 -1.576924973658175 -1.6156287391564736 -1.5854398020678007
leaf_weight=5.1674559414386776 3.9749661087989798 4.173714414238928 4.769959330558776 5.1674559414386749 5.9624491631984693 4.9687076359987259
leaf_count=26 20 21 24 26 30 25
internal_value=-1.56151 -1.54042 -1.51642 -1.54604 -1.58879 -1.60191
internal_weight=34.1847 19.2786 14.1111 9.34117 14.9061 10.9312
internal_count=172 97 71 47 75 55
is_linear=0
shrinkage=1


Tree=4
num_leaves=7
num_cat=0
split_feature=1 1 1 5 7 1
split_gain=17.2969 16.7159 8.7449 4.11694 1.80323 0.145418
threshold=0.64500000000000013 0.85500000000000009 0.74500000000000011 0.12500000000000003 0.91500000000000015 0.52500000000000013
decision_type=2 2 2 2 2 2
left_child=4 2 -2 -3 5 -1
right_child=1 3 -4 -5 -6 -7
leaf_value=-1.5299188650104019 -1.4547312246840152 -1.5299188650104019 -1.3645060562923512 -1.4637537415231816 -1.4888225150183396 -1.518103664387684
leaf_weight=6.7709388732910138 4.655020475387575 4.231836795806883 6.3477551937103271 5.289795994758606 4.8666123151779166 4.2318367958068848
leaf_count=32 22 20 30 25 23 20
internal_value=-1.47496 -1.44465 -1.40268 -1.49316 -1.51417 -1.52537
internal_weight=36.3938 20.5244 11.0028 9.52163 15.8694 11.0028
internal_count=172 97 52 45 75 52
is_linear=0
shrinkage=1


Tree=5
num_leaves=6
num_cat=0
split_feature=0 2 7 1 5
split_gain=37.6284 5.29441 3.64794 0.965688 1.74501
threshold=0.93500000000000016 0.95500000000000007 0.94500000000000006 0.7350000000000001 0.52500000000000013
decision_type=2 2 2 2 2
left_child=1 2 3 4 -1
right_child=-2 -3 -4 -5 -6
leaf_value=-1.4935644015558853 -1.3572351636014479 -1.4472124606513765 -1.4682743400223084 -1.5299188650104019 -1.5299188650104019
leaf_weight=8.2520817518234342 5.5013878345489493 4.2318367958068839 4.8666123151779166 8.0404899120330793 5.5013878345489493
leaf_count=39 26 20 23 38 26
internal_value=-1.47771 -1.49917 -1.50741 -1.51615 -1.50811
internal_weight=36.3938 30.8924 26.6606 21.794 13.7535
internal_count=172 146 126 103 65
is_linear=0
shrinkage=1


Tree=6
num_leaves=1
num_cat=0
split_feature=
split_gain=
threshold=
decision_type=
left_child=
right_child=
leaf_value=0
leaf_weight=
leaf_count=210
internal_value=
internal_weight=
internal_count=
is_linear=0
shrinkage=1


Tree=7
num_leaves=6
num_cat=0
split_feature=4 0 6 4 6
split_gain=12.959 12.7819 3.72562 0.22115 5.15018e-05
threshold=0.30500000000000005 0.59500000000000008 0.44500000000000006 0.17500000000000002 0.21000000000000005
decision_type=2 2 2 2 2
left_child=2 -2 3 4 -1
right_child=1 -3 -4 -5 -6
leaf_value=-0.049373417274373797 0.096518426061081561 -0.0087195509534142759 0.011036440712754935 -0.033822810130354701 -0.049634451157674724
leaf_weight=4.2668794095516223 5.4622869491577131 6.1158348023891449 4.1061767339706412 3.1914127767086029 3.3915484547615051
leaf_count=27 33 38 25 20 21
internal_value=0.00121545 0.0409293 -0.0295288 -0.0448809 -0.049489
internal_weight=26.5341 11.5781 14.956 10.8498 7.65843
internal_count=164 71 93 68 48
is_linear=0
shrinkage=0.05


Tree=8
num_leaves=6
num_cat=0
split_feature=7 3 6 0 0
split_gain=20.4786 1.92012 4.37981 1.58092 0.173838
threshold=0.8650000000000001 0.78500000000000014 0.21000000000000005 0.84500000000000008 0.60500000000000009
decision_type=2 2 2 2 2
left_child=-1 3 -3 4 -2
right_child=1 2 -4 -5 -6
leaf_value=0.083501671175304049 -0.050443106972351229 -0.039316223824509187 0.030400464280001191 -0.0059448823159896748 -0.036851269999407348
leaf_weight=5.5728732198476818 6.3647823780775088 4.6725094914436323 4.35018390417099 3.3873352259397498 3.7318027913570404
leaf_count=31 37 28 26 20 22
internal_value=-0.00230887 -0.0235565 -0.00570315 -0.0355029 -0.0454194
internal_weight=28.0795 22.5066 9.02269 13.4839 10.0966
internal_count=164 133 54 79 59
is_linear=0
shrinkage=0.05


Tree=9
num_leaves=6
num_cat=0
split_feature=5 2 0 5 5
split_gain=6.98155 7.06413 7.98154 1.93914 2.12697
threshold=0.30500000000000005 0.81500000000000006 0.6150000000000001 0.10500000000000002 0.24000000000000002
decision_type=2 2 2 2 2
left_child=3 -2 -3 -1 -5
right_child=1 2 -4 4 -6
leaf_value=-0.052415687608021261 -0.039885270677388403 0.069030756909184546 -0.0062958971307183658 0.0077869858096640682 -0.040677421997202139
leaf_weight=5.2755334526300421 4.0590688437223461 7.764798700809477 6.427765280008316 4.9598963260650617 4.1649185866117477
leaf_count=27 21 38 32 25 21
internal_value=-0.00225628 0.0182802 0.0349156 -0.0282852 -0.014334
internal_weight=32.652 18.2516 14.1926 14.4003 9.12481
internal_count=164 91 70 73 46
is_linear=0
shrinkage=0.05


Tree=10
num_leaves=6
num_cat=0
split_feature=5 3 3 5 7
split_gain=14.3006 15.5953 7.20233 5.75693 1.22908
threshold=0.44500000000000006 0.83000000000000007 0.68500000000000016 0.24000000000000002 0.90500000000000014
decision_type=2 2 2 2 2
left_child=1 2 3 -1 -2
right_child=4 -3 -4 -5 -6
leaf_value=-0.017838513344276136 -0.053569901006911426 -0.038458544782008483 0.096420757556985148 0.059344861028367883 -0.020558970241529053
leaf_weight=4.1779790371656436 7.6578003317117673 6.6241109371185294 5.9416761845350257 5.7283623069524765 4.4630815237760544
leaf_count=20 37 32 27 27 21
internal_value=0.00235837 0.0259685 0.0528975 0.0267929 -0.0414148
internal_weight=34.593 22.4721 15.848 9.90634 12.1209
internal_count=164 106 74 47 58
is_linear=0
shrinkage=0.05


Tree=11
num_leaves=7
num_cat=0
split_feature=4 6 6 6 0 5
split_gain=35.8278 7.20347 3.36149 5.64934 0.614757 0.000182811
threshold=0.015000000000000001 0.39000000000000007 0.30500000000000005 0.15500000000000003 0.63500000000000012 0.59500000000000008
decision_type=2 2 2 2 2 2
left_child=-1 2 3 -2 5 -3
right_child=1 4 -4 -5 -6 -7
leaf_value=0.13182105533039459 0.034908198646121116 -0.05359143661093009 0.04175539910114888 -0.035193722126047801 -0.030374313840750761 -0.053143546717972959
leaf_weight=4.5299648642539969 4.4845349043607774 5.1866617351770383 4.1864178478717795 8.0022076517343503 4.2247963249683371 4.0628491789102554
leaf_count=20 21 25 20 38 20 20
internal_value=0.000711405 -0.0189892 0.00298234 -0.0100171 -0.0461768 -0.0533947
internal_weight=34.6774 30.1475 16.6732 12.4867 13.4743 9.24951
internal_count=164 144 79 59 65 45
is_linear=0
shrinkage=0.05


Tree=12
num_leaves=1
num_cat=0
split_feature=
split_gain=
threshold=
decision_type=
left_child=
right_child=
leaf_value=0
leaf_weight=
leaf_count=210
internal_value=
internal_weight=
internal_count=
is_linear=0
shrinkage=1


Tree=13
num_leaves=6
num_cat=0
split_feature=5 4 2 3 5
split_gain=20.1716 3.04162 1.00661 0.955617 0.212173
threshold=0.55500000000000016 0.45500000000000007 0.85500000000000009 0.8650000000000001 0.39500000000000007
decision_type=2 2 2 2 2
left_child=1 2 -1 4 -4
right_child=-2 -3 3 -5 -6
leaf_value=-0.0042906866457198597 0.093682792517410324 0.013770503471876062 -0.049448884567265566 -0.016051457045805701 -0.033511357347635627
leaf_weight=3.3247125148773291 4.8523820638656607 5.4847436994314185 6.1803410798311216 4.5183088332414618 3.153970330953598
leaf_count=21 28 33 39 29 20
internal_value=0.00116364 -0.0186465 -0.0289973 -0.034927 -0.0440638
internal_weight=27.5145 22.6621 17.1773 13.8526 9.33431
internal_count=170 142 109 88 59
is_linear=0
shrinkage=0.05


Tree=14
num_leaves=7
num_cat=0
split_feature=7 6 7 2 1 4
split_gain=7.98842 5.51873 2.56992 1.53171 0.194208 3.18467e-05
threshold=0.87500000000000011 0.39000000000000007 0.91500000000000015 0.87500000000000011 0.95500000000000007 0.22500000000000003
decision_type=2 2 2 2 2 2
left_child=-1 3 -3 -2 5 -5
right_child=1 2 -4 4 -6 -7
leaf_value=0.045136489798797058 -0.0059256410065133581 -0.012201944164001187 0.043888548284121184 -0.04974649986749017 -0.035002512610188205 -0.049529668621719911
leaf_weight=7.2341865301132229 3.3858156949281719 3.9324265569448453 4.2482346594333649 3.2609190344810468 3.4070122092962265 3.5228154808282852
leaf_count=39 20 23 25 20 21 22
internal_value=-0.00038042 -0.0155146 0.016926 -0.0350619 -0.0447423 -0.0496339
internal_weight=28.9914 21.7572 8.18066 13.5766 10.1907 6.78373
internal_count=170 131 48 83 63 42
is_linear=0
shrinkage=0.05


Tree=15
num_leaves=6
num_cat=0
split_feature=7 3 1 3 2
split_gain=9.36068 13.6535 12.677 3.33912 0.151062
threshold=0.90500000000000014 0.44500000000000006 0.69000000000000006 0.68500000000000016 0.96500000000000008
decision_type=2 2 2 2 2
left_child=1 -1 -3 -2 -5
right_child=3 2 -4 4 -6
leaf_value=-0.052690542654103112 -0.0018742573799218369 0.094461193042021649 -0.0068330249660709151 -0.052382678366228022 -0.039920732725125016
leaf_weight=4.329610928893092 6.8418755084276226 7.0805817991495115 5.4788279384374619 5.8439230024814588 4.1648494899272919
leaf_count=22 34 34 28 30 22
internal_value=-0.00242842 0.0238779 0.0502733 -0.0287946 -0.047197
internal_weight=33.7397 16.889 12.5594 16.8506 10.0088
internal_count=170 84 62 86 52
is_linear=0
shrinkage=0.05


Tree=16
num_leaves=6
num_cat=0
split_feature=1 1 5 5 0
split_gain=12.2008 20.5159 6.80083 2.96674 0.000306107
threshold=0.65500000000000014 0.94500000000000006 0.41000000000000009 0.44500000000000006 0.48500000000000004
decision_type=2 2 2 2 2
left_child=3 2 -2 -1 -5
right_child=1 -3 -4 4 -6
leaf_value=-0.01009034566793434 0.093076092726111961 -0.03997300207425037 0.015194254095769681 -0.052404044221442285 -0.053011052460733933
leaf_weight=7.9868808835744884 8.0334540009498614 7.2724909335374823 4.3052252084016791 3.9079773724079114 4.4328135848045349
leaf_count=38 35 35 20 20 22
internal_value=5.73635e-05 0.0266396 0.0659015 -0.0318706 -0.0527266
internal_weight=35.9388 19.6112 12.3387 16.3277 8.34079
internal_count=170 90 55 80 42
is_linear=0
shrinkage=0.05


Tree=17
num_leaves=7
num_cat=0
split_feature=6 3 6 7 1 5
split_gain=34.272 7.45291 4.75179 4.35407 0.310806 0.000458171
threshold=0.15500000000000003 0.88500000000000012 0.39000000000000007 0.91500000000000015 0.60500000000000009 0.57500000000000007
decision_type=2 2 2 2 2 2
left_child=1 -1 3 -2 5 -4
right_child=2 -3 4 -5 -6 -7
leaf_value=0.037331269322244363 -0.030824537378850731 0.12750526479814406 -0.053194932594231581 0.029884017625197535 -0.038212151522455766 -0.052437202890346639
leaf_weight=4.3457876890897733 6.6077798604965228 4.8472095131874084 4.0672190040349943 5.3405873328447342 6.6898135244846344 3.9155967533588409
leaf_count=20 32 20 20 25 33 20
internal_value=0.00164417 0.0848775 -0.0270987 -0.0036895 -0.0461615 -0.0528233
internal_weight=35.814 9.193 26.621 11.9484 14.6726 7.98282
internal_count=170 40 130 57 73 40
is_linear=0
shrinkage=0.05


Tree=18
num_leaves=1
num_cat=0
split_feature=
split_gain=
threshold=
decision_type=
left_child=
right_child=
leaf_value=0
leaf_weight=
leaf_count=210
internal_value=
internal_weight=
internal_count=
is_linear=0
shrinkage=1


Tree=19
num_leaves=8
num_cat=0
split_feature=0 2 4 3 7 0 1
split_gain=17.3742 5.97507 1.86626 1.30274 0.836873 0.000300266 4.16429e-05
threshold=0.41000000000000009 0.84500000000000008 0.50500000000000012 0.58500000000000008 0.89500000000000013 0.68500000000000016 0.94500000000000006
decision_type=2 2 2 2 2 2 2
left_child=-1 -2 3 -3 -5 -6 -7
right_child=1 2 -4 4 5 6 -8
leaf_value=0.098280639191608621 0.036947579950712871 -0.0066054786945079769 0.0065963221954011483 -0.020009474541974437 -0.049401981513719849 -0.048929509564557216 -0.048665589144350013
leaf_weight=3.9927047938108471 4.6041153520345715 3.4980232864618364 3.5231457948684684 3.4195060580968848 3.1552146226167661 3.0250407010316849 2.9543377608060837
leaf_count=21 28 22 21 22 20 20 20
internal_value=0.00165289 -0.0143031 -0.0263573 -0.03359 -0.0411089 -0.0490073 -0.0487991
internal_weight=28.1721 24.1794 19.5753 16.0521 12.5541 9.13459 5.97938
internal_count=174 153 125 104 82 60 40
is_linear=0
shrinkage=0.05


Tree=20
num_leaves=7
num_cat=0
split_feature=3 5 1 0 7 2
split_gain=13.9956 4.62092 1.70139 3.82366 1.10986 0.000364408
threshold=0.42500000000000004 0.45500000000000007 0.78500000000000014 0.7350000000000001 0.89500000000000013 0.94500000000000006
decision_type=2 2 2 2 2 2
left_child=-1 2 3 -2 -3 -4
right_child=1 4 5 -5 -6 -7
leaf_value=0.076166866973436748 -0.041725739461118856 -0.0034294049722357399 -0.050011157470396188 0.02486188851004004 0.034650069173935413 -0.049329439608141318
leaf_weight=4.6645207852125194 6.0952460169792229 4.1714272499084464 3.6487407982349387 3.3358048945665359 3.5350708216428757 4.2361574769020081
leaf_count=24 37 23 22 20 21 27
internal_value=-0.00334734 -0.0181699 -0.0325041 -0.0181734 0.0140381 -0.0496449
internal_weight=29.687 25.0224 17.3159 9.43105 7.7065 7.8849
internal_count=174 150 106 57 44 49
is_linear=0
shrinkage=0.05


Tree=21
num_leaves=8
num_cat=0
split_feature=1 3 7 3 0 7 0
split_gain=6.70304 14.9037 8.39161 7.72308 2.65874 0.624717 0.000774044
threshold=0.69000000000000006 0.57500000000000007 0.90500000000000014 0.63500000000000012 0.44500000000000006 0.90500000000000014 0.89500000000000013
decision_type=2 2 2 2 2 2 2
left_child=1 4 -3 -2 -1 -5 -7
right_child=3 2 -4 5 -6 6 -8
leaf_value=-0.052362457557846548 0.034168239899958347 0.10280030011503583 0.0093849560179834843 -0.026576242977404952 0.0029374745011969561 -0.051879171239928981 -0.050851121940229532
leaf_weight=4.2490555644035357 4.5957614034414283 6.0034023821353895 4.0098294168710709 3.8826229721307737 4.4497029036283493 3.7806038558483124 3.5504405945539474
leaf_count=22 23 27 20 20 22 20 20
internal_value=0.00354935 0.023801 0.0653918 -0.0204204 -0.0240747 -0.0427928 -0.0513813
internal_weight=34.5214 18.712 10.0132 15.8094 8.69876 11.2137 7.33104
internal_count=174 91 47 83 44 60 40
is_linear=0
shrinkage=0.05


Tree=22
num_leaves=6
num_cat=0
split_feature=2 4 1 3 4
split_gain=13.2558 9.93058 11.9188 5.59904 0.137321
threshold=0.8650000000000001 0.070000000000000021 0.54500000000000015 0.68500000000000016 0.35500000000000004
decision_type=2 2 2 2 2
left_child=4 -2 -3 -4 -1
right_child=1 2 3 -5 -6
leaf_value=-0.052963687918611481 -0.043300811869902749 -0.033238463417703 0.020917695326123104 0.082037554414004912 -0.041433394677744512
leaf_weight=6.6018504500389081 5.3196401149034527 5.0364173799753216 6.6269829869270316 8.6222689896821958 4.2410924732685089
leaf_count=33 27 25 31 37 21
internal_value=-0.00211691 0.0175051 0.0334506 0.0554762 -0.0484537
internal_weight=36.4483 25.6053 20.2857 15.2493 10.8429
internal_count=174 120 93 68 54
is_linear=0
shrinkage=0.05


Tree=23
num_leaves=7
num_cat=0
split_feature=0 6 1 3 4 6
split_gain=29.0313 5.97245 4.78129 2.29608 0.475095 0.157381
threshold=0.93500000000000016 0.43500000000000005 0.7350000000000001 0.62000000000000011 0.24500000000000002 0.58500000000000008
decision_type=2 2 2 2 2 2
left_child=1 2 3 -1 -4 -3
right_child=-2 5 4 -5 -6 -7
leaf_value=0.044663413625055895 0.097539825453967471 -0.052427471948975603 -0.041724738088537675 -0.0033402627150214237 -0.018044231605178759 -0.040462978721086382
leaf_weight=5.0642625838518196 6.333382472395896 7.4187901169061643 4.2911958396434766 4.9024535566568375 4.1824367195367813 4.3661272823810577
leaf_count=24 25 38 21 23 20 23
internal_value=0.000203399 -0.0201924 -0.00242436 0.0210512 -0.0300365 -0.0479948
internal_weight=36.5586 30.2253 18.4403 9.96672 8.47363 11.7849
internal_count=174 149 88 47 41 61
is_linear=0
shrinkage=0.05


Tree=24
num_leaves=1
num_cat=0
split_feature=
split_gain=
threshold=
decision_type=
left_child=
right_child=
leaf_value=0
leaf_weight=
leaf_count=210
internal_value=
internal_weight=
internal_count=
is_linear=0
shrinkage=1


Tree=25
num_leaves=6
num_cat=0
split_feature=5 6 1 0 0
split_gain=10.5224 5.03555 1.348 1.75105 2.73575
threshold=0.55500000000000016 0.46500000000000002 0.89500000000000013 0.84500000000000008 0.59500000000000008
decision_type=2 2 2 2 2
left_child=1 2 3 4 -1
right_child=-2 -3 -4 -5 -6
leaf_value=0.00741400737192951 0.069152457161927236 0.033286933602883761 -0.048851253895491248 0.0163938654243698 -0.048793883809147322
leaf_weight=3.5045553743839353 4.944807916879653 4.8020341396331778 4.3275194317102423 3.0565685629844657 5.6628483086824417
leaf_count=22 26 29 29 20 38
internal_value=0.00342855 -0.011791 -0.0248694 -0.0163793 -0.0273065
internal_weight=26.2983 21.3535 16.5515 12.224 9.1674
internal_count=164 138 109 80 60
is_linear=0
shrinkage=0.05


Tree=26
num_leaves=7
num_cat=0
split_feature=2 4 4 4 7 6
split_gain=6.70335 3.65451 3.84015 2.40602 0.667524 0.00102784
threshold=0.81500000000000006 0.35500000000000004 0.50500000000000012 0.10500000000000002 0.88500000000000012 0.34500000000000003
decision_type=2 2 2 2 2 2
left_child=-1 3 -3 -2 -5 -6
right_child=1 2 -4 4 5 -7
leaf_value=0.054488760093797245 0.00098584073528865698 0.054287810273161909 -0.016516394640962138 -0.023766621702009876 -0.049352883492028182 -0.050547438344166806
leaf_weight=4.1849073916673687 4.9380676746368435 3.3492368161678305 4.4719573110342026 3.6842530965805036 3.7710455060005188 3.446540892124176
leaf_count=21 31 20 27 21 24 20
internal_value=-0.00384354 -0.0141607 0.0138038 -0.0279686 -0.0410837 -0.0499233
internal_weight=27.846 23.6611 7.82119 15.8399 10.9018 7.21759
internal_count=164 143 47 96 65 44
is_linear=0
shrinkage=0.05


Tree=27
num_leaves=7
num_cat=0
split_feature=0 0 6 0 4 3
split_gain=7.16502 12.0015 6.16501 2.57857 3.57684 1.07838
threshold=0.6150000000000001 0.44500000000000006 0.43500000000000005 0.80500000000000016 0.12500000000000003 0.70500000000000007
decision_type=2 2 2 2 2 2
left_child=1 -1 -3 5 -5 -2
right_child=3 2 -4 4 -6 -7
leaf_value=-0.039448670608134506 -0.017309889572342248 0.022180282698179163 0.10366972962775332 -0.037790865171226935 0.023524753996737952 -0.052329511048076108
leaf_weight=4.087413862347602 4.2023245394229907 4.591685086488722 4.6933335065841675 3.7373093366622907 6.5416714251041412 4.6097459048032761
leaf_count=22 21 22 21 21 33 24
internal_value=0.00387654 0.0319432 0.0633711 -0.0157829 0.00123116 -0.0356293
internal_weight=32.4635 13.3724 9.28502 19.0911 10.279 8.81207
internal_count=164 65 43 99 54 45
is_linear=0
shrinkage=0.05


Tree=28
num_leaves=7
num_cat=0
split_feature=1 1 5 0 2 7
split_gain=11.2248 10.0425 11.0924 2.98852 2.71606 0.695656
threshold=0.59500000000000008 0.85500000000000009 0.45500000000000007 0.90500000000000014 0.92500000000000016 0.87500000000000011
decision_type=2 2 2 2 2 2
left_child=5 2 4 -3 -2 -1
right_child=1 3 -4 -5 -6 -7
leaf_value=-0.026181150805515224 0.1022557120979752 0.0042516536060663085 -0.020083046488388306 -0.052586568841362348 0.049514080212832393 -0.0525840032086137
leaf_weight=3.9188721477985364 4.6927228718996066 5.0467585921287519 4.4935225695371619 4.2689080387353897 5.087277427315712 6.8652606308460236
leaf_count=21 20 23 22 22 21 35
internal_value=-0.000731022 0.018588 0.0449438 -0.0217945 0.074821 -0.0429894
internal_weight=34.3733 23.5892 14.2735 9.31567 9.78 10.7841
internal_count=164 108 63 45 41 56
is_linear=0
shrinkage=0.05


Tree=29
num_leaves=6
num_cat=0
split_feature=6 6 6 0 5
split_gain=26.8614 2.90476 3.96981 0.479541 0.000832194
threshold=0.15500000000000003 0.39000000000000007 0.30500000000000005 0.71500000000000008 0.50500000000000012
decision_type=2 2 2 2 2
left_child=-1 2 -2 4 -3
right_child=1 3 -4 -5 -6
leaf_value=0.070953293063327594 -0.033014023212696621 -0.052237639208943448 0.027604921251223435 -0.032047773588770777 -0.051261891958321204
leaf_weight=9.1465290337800962 7.3450261801481265 4.0529812276363355 4.2714364379644394 4.788718730211257 4.7417375892400742
leaf_count=37 36 21 20 24 26
internal_value=-0.00244148 -0.0290808 -0.0107241 -0.0447793 -0.0517116
internal_weight=34.3464 25.1999 11.6165 13.5834 8.79472
internal_count=164 127 56 71 47
is_linear=0
shrinkage=0.05


Tree=30
num_leaves=1
num_cat=0
split_feature=
split_gain=
threshold=
decision_type=
left_child=
right_child=
leaf_value=0
leaf_weight=
leaf_count=210
internal_value=
internal_weight=
internal_count=
is_linear=0
shrinkage=1


Tree=31
num_leaves=7
num_cat=0
split_feature=0 0 5 7 4 3
split_gain=7.87487 3.22912 5.19962 3.65629 2.11934 0.223806
threshold=0.41000000000000009 0.92500000000000016 0.19000000000000003 0.92500000000000016 0.19500000000000003 0.60500000000000009
decision_type=2 2 2 2 2 2
left_child=-1 2 -2 4 -4 -6
right_child=1 -3 3 -5 5 -7
leaf_value=0.072316756933100718 0.059057810061701667 -0.048399629959341745 0.0028348642303583343 0.022797798648982941 -0.050650104290551827 -0.03280519729982477
leaf_weight=3.5626330524683025 3.2168523371219697 3.9945543110370627 3.8693112283945101 5.5287882089614859 4.131174698472023 3.0573962330818176
leaf_count=17 20 28 26 35 24 20
internal_value=0.00298799 -0.0073907 0.000881182 -0.0104017 -0.027001 -0.0430604
internal_weight=27.3607 23.7981 19.8035 16.5867 11.0579 7.18857
internal_count=170 153 125 105 70 44
is_linear=0
shrinkage=0.05


Tree=32
num_leaves=7
num_cat=0
split_feature=3 5 0 4 0 6
split_gain=11.425 3.08941 3.99861 0.808195 0.785429 0.000516289
threshold=0.44500000000000006 0.30500000000000005 0.75500000000000012 0.32500000000000007 0.54500000000000015 0.22500000000000003
decision_type=2 2 2 2 2 2
left_child=-1 3 4 5 -3 -2
right_child=1 2 -4 -5 -6 -7
leaf_value=0.057141653097374526 -0.048824188869412456 -0.0059971722895124056 0.037684663683352666 -0.019672373545263321 -0.038169241961305618 -0.04965566803366131
leaf_weight=5.9013653397560146 4.1856855303049105 3.3705577552318555 3.9646336436271667 3.3441864103078842 4.3396156579256058 3.3701064437627792
leaf_count=30 28 20 23 21 27 21
internal_value=-0.00480155 -0.0209944 -0.00312192 -0.0401373 -0.024105 -0.0491951
internal_weight=28.4762 22.5748 11.6748 10.9 7.71017 7.55579
internal_count=170 140 70 70 47 49
is_linear=0
shrinkage=0.05


Tree=33
num_leaves=8
num_cat=0
split_feature=1 3 5 3 3 0 6
split_gain=8.18556 9.70834 7.65898 2.9873 1.26418 0.814065 0.000925726
threshold=0.69000000000000006 0.57500000000000007 0.37500000000000006 0.60500000000000009 0.42500000000000004 0.91500000000000015 0.25500000000000006
decision_type=2 2 2 2 2 2 2
left_child=1 4 -3 -2 -1 6 -5
right_child=3 2 -4 5 -6 -7 -8
leaf_value=-0.038958067926539795 0.0075926168099871884 0.010189340019040464 0.10058424022984878 -0.050728842981819205 -0.00038990757349355808 -0.022454526667072178 -0.051819128626683322
leaf_weight=3.8778381049633044 4.0986362099647513 4.6454967409372312 4.7283367514610291 4.0405812263488752 4.6995473057031631 3.5803215950727463 3.7572771459817886
leaf_count=21 20 22 20 23 23 21 20
internal_value=-0.00236097 0.0206128 0.0557862 -0.0290078 -0.0178266 -0.0421919 -0.0512542
internal_weight=33.428 17.9512 9.37383 15.4768 8.57739 11.3782 7.79786
internal_count=170 86 42 84 44 64 43
is_linear=0
shrinkage=0.05


Tree=34
num_leaves=6
num_cat=0
split_feature=5 2 1 0 1
split_gain=13.8232 11.7605 7.10057 6.3056 1.05031
threshold=0.44500000000000006 0.96500000000000008 0.59500000000000008 0.77500000000000013 0.64500000000000013
decision_type=2 2 2 2 2
left_child=1 2 -1 -4 -2
right_child=4 -3 3 -5 -6
leaf_value=-0.0078595054465372908 -0.051097771119353666 -0.035692725813459919 0.088919641327730253 0.022246410012618137 -0.01932785368360734
leaf_weight=4.4853118211031022 6.4707829803228361 5.4449964314699164 9.4077958762645704 5.6916088014841071 4.3506304025650024
leaf_count=23 36 27 38 25 21
internal_value=0.00889304 0.0293074 0.047379 0.0637877 -0.038325
internal_weight=35.8511 25.0297 19.5847 15.0994 10.8214
internal_count=170 113 86 63 57
is_linear=0
shrinkage=0.05


Tree=35
num_leaves=6
num_cat=0
split_feature=5 6 1 6 0
split_gain=23.8621 4.78281 1.64866 0.201014 0.00222297
threshold=0.10500000000000002 0.39000000000000007 0.7350000000000001 0.58500000000000008 0.60500000000000009
decision_type=2 2 2 2 2
left_child=-1 2 -2 4 -3
right_child=1 3 -4 -5 -6
leaf_value=0.08014664721258774 0.010274069333882221 -0.050923763760209288 -0.022291037797861884 -0.038058037890442882 -0.052496915963532509
leaf_weight=6.6350111514329901 7.5753235816955584 4.9749304056167585 7.9815346896648407 3.8990813791751853 4.0931928306818008
leaf_count=26 34 28 39 22 21
internal_value=-0.00525972 -0.0251262 -0.00643364 -0.0475518 -0.0516339
internal_weight=35.1591 28.5241 15.5569 12.9672 9.06812
internal_count=170 144 73 71 49
is_linear=0
shrinkage=0.05


Tree=36
num_leaves=1
num_cat=0
split_feature=
split_gain=
threshold=
decision_type=
left_child=
right_child=
leaf_value=0
leaf_weight=
leaf_count=210
internal_value=
internal_weight=
internal_count=
is_linear=0
shrinkage=1


Tree=37
num_leaves=7
num_cat=0
split_feature=5 6 7 0 6 4
split_gain=11.7248 4.53537 2.91687 1.28811 0.817874 0.000676571
threshold=0.55500000000000016 0.50500000000000012 0.90500000000000014 0.59500000000000008 0.34500000000000003 0.17500000000000002
decision_type=2 2 2 2 2 2
left_child=1 2 3 -1 5 -4
right_child=-2 -3 4 -5 -6 -7
leaf_value=0.024577696281887183 0.075377369097508695 0.042807819738966378 -0.047932714381339801 -0.016138940379239557 -0.01791917730553667 -0.048899967241573736
leaf_weight=3.3647076189518073 4.6519082784652701 3.1979127079248419 3.7886761426925641 4.5952972918748856 3.1623277068138123 3.4579996764659882
leaf_count=21 23 18 28 31 20 23
internal_value=0.00338359 -0.0121452 -0.0217121 0.00107205 -0.0391357 -0.0483943
internal_weight=26.2188 21.5669 18.369 7.96 10.409 7.24668
internal_count=164 141 123 52 71 51
is_linear=0
shrinkage=0.05


Tree=38
num_leaves=7
num_cat=0
split_feature=2 4 5 3 1 6
split_gain=5.14367 3.1183 2.14411 2.13971 0.224337 0.00245258
threshold=0.80500000000000016 0.10500000000000002 0.17500000000000002 0.78500000000000014 0.71500000000000008 0.40500000000000008
decision_type=2 2 2 2 2 2
left_child=-1 -2 -3 4 5 -4
right_child=1 2 3 -5 -6 -7
leaf_value=0.049409500913302838 0.017753318485797396 0.010622265225154047 -0.049369520465936706 -0.0044812674363124191 -0.03509858098149294 -0.051202223780929972
leaf_weight=3.3740507960319546 5.1933160126209286 3.2900290787220028 3.0845884978771192 4.4304169565439215 3.471073642373085 4.4721637517213821
leaf_count=16 33 20 20 28 22 25
internal_value=-0.00838702 -0.0165322 -0.0260294 -0.03383 -0.0456209 -0.0504541
internal_weight=27.3156 23.9416 18.7483 15.4582 11.0278 7.55675
internal_count=164 148 115 95 67 45
is_linear=0
shrinkage=0.05


Tree=39
num_leaves=6
num_cat=0
split_feature=4 4 6 4 6
split_gain=7.16615 7.15946 7.70746 4.94059 2.45665
threshold=0.115 0.27500000000000008 0.37500000000000006 0.55500000000000016 0.34500000000000003
decision_type=2 2 2 2 2
left_child=-1 2 -2 4 -3
right_child=1 3 -4 -5 -6
leaf_value=-0.044255802089451374 0.0057933423248108865 0.0010941094017929321 0.095213325859064127 0.039814351791614695 -0.044650193402791347
leaf_weight=6.5915741920471183 5.0845654308795947 5.5712907761335391 4.5809020102024078 4.2633231580257407 6.2026112824678421
leaf_count=36 26 29 20 21 32
internal_value=0.00225407 0.0141817 0.0481735 -0.00630475 -0.0230045
internal_weight=32.2943 25.7027 9.66547 16.0372 11.7739
internal_count=164 128 46 82 61
is_linear=0
shrinkage=0.05


Tree=40
num_leaves=7
num_cat=0
split_feature=5 5 1 6 2 5
split_gain=9.93902 11.6847 4.97671 1.93432 0.949365 0.751927
threshold=0.44500000000000006 0.19000000000000003 0.64500000000000013 0.27500000000000008 0.8650000000000001 0.085000000000000006
decision_type=2 2 2 2 2 2
left_child=1 5 -3 -4 -2 -1
right_child=4 2 3 -5 -6 -7
leaf_value=-0.040068479712511325 -0.051162387104873336 0.0093581750815859288 0.089386413794473263 0.04633785622785884 -0.020111638689571547 -0.010455384519825098
leaf_weight=4.1157232224941271 5.3684393912553769 5.5383434295654288 5.2516311407089216 5.1866024881601334 4.5463797599077225 4.4736815690994263
leaf_count=22 30 27 20 21 23 21
internal_value=0.00533071 0.0223848 0.0476691 0.0679962 -0.0369243 -0.0246449
internal_weight=34.4808 24.566 15.9766 10.4382 9.91482 8.5894
internal_count=164 111 68 41 53 43
is_linear=0
shrinkage=0.05


Tree=41
num_leaves=7
num_cat=0
split_feature=6 6 2 4 2 3
split_gain=18.1133 3.97353 2.96361 1.05364 0.217759 0.00145427
threshold=0.15500000000000003 0.39000000000000007 0.94500000000000006 0.17500000000000002 0.83500000000000008 0.66500000000000015
decision_type=2 2 2 2 2 2
left_child=-1 2 3 -2 -3 -6
right_child=1 4 -4 -5 5 -7
leaf_value=0.056254153242176398 -0.041314655968705191 -0.036180278453100262 0.027614753890068566 -0.0058301933494757366 -0.050426008702276738 -0.051742196426645272
leaf_weight=9.2268885076045972 4.208050340414049 3.4690683633089057 4.2454728484153739 4.1600910276174545 4.2777404189109784 4.119977667927742
leaf_count=36 21 20 20 20 25 22
internal_value=-0.00344785 -0.0259501 -0.00641137 -0.0236741 -0.0467185 -0.0510717
internal_weight=33.7073 24.4804 12.6136 8.36814 11.8668 8.39772
internal_count=164 128 61 41 67 47
is_linear=0
shrinkage=0.05


Tree=42
num_leaves=1
num_cat=0
split_feature=
split_gain=
threshold=
decision_type=
left_child=
right_child=
leaf_value=0
leaf_weight=
leaf_count=210
internal_value=
internal_weight=
internal_count=
is_linear=0
shrinkage=1


Tree=43
num_leaves=7
num_cat=0
split_feature=0 0 1 1 3 3
split_gain=6.89355 2.06606 3.71299 2.28028 3.49138 2.67438
threshold=0.41000000000000009 0.92500000000000016 0.85500000000000009 0.7350000000000001 0.70500000000000007 0.55500000000000016
decision_type=2 2 2 2 2 2
left_child=-1 2 3 4 5 -2
right_child=1 -3 -4 -5 -6 -7
leaf_value=0.057436587922017085 0.010409295884466013 -0.047737661590438768 0.038283637934805083 -0.048289579419787676 0.037498759308662179 -0.049563720376168116
leaf_weight=4.3848237842321423 3.3032540380954796 3.2888306081295005 3.9562253206968299 4.0380757078528395 3.4283599257469177 4.2512218207120895
leaf_count=19 20 25 24 29 21 27
internal_value=0.000133106 -0.0111516 -0.0048111 -0.0161614 -0.00434884 -0.02334
internal_weight=26.6508 22.266 18.9771 15.0209 10.9828 7.55448
internal_count=165 146 121 97 68 47
is_linear=0
shrinkage=0.05


Tree=44
num_leaves=6
num_cat=0
split_feature=7 0 0 3 4
split_gain=9.14406 2.06924 2.80515 2.06001 2.21246
threshold=0.8650000000000001 0.93500000000000016 0.80500000000000016 0.78500000000000014 0.41500000000000004
decision_type=2 2 2 2 2
left_child=-1 2 3 4 -2
right_child=1 -3 -4 -5 -6
leaf_value=0.055995227782685786 -0.049314976624692197 -0.048605291926552704 0.030908247478097142 0.015300569097909845 -0.00022966026376153144
leaf_weight=6.8416633903980282 5.3314154744148308 3.0680300444364539 4.3147598952054969 3.8420236259698859 4.0317372679710388
leaf_count=34 35 21 26 24 25
internal_value=0.00591624 -0.0107257 -0.00409235 -0.0155287 -0.028179
internal_weight=27.4296 20.588 17.5199 13.2052 9.36315
internal_count=165 131 110 84 60
is_linear=0
shrinkage=0.05


Tree=45
num_leaves=7
num_cat=0
split_feature=1 3 0 3 0 0
split_gain=5.61896 8.63081 5.85325 2.11198 1.48997 0.158902
threshold=0.74500000000000011 0.57500000000000007 0.68500000000000016 0.60500000000000009 0.49500000000000005 0.71500000000000008
decision_type=2 2 2 2 2 2
left_child=1 4 -3 -2 -1 -5
right_child=3 2 -4 5 -6 -7
leaf_value=-0.051112682487003291 0.00085071102993129397 0.074030575781324312 0.0041795085741348249 -0.035922557621556016 -0.0079617059386488161 -0.049878979385105146
leaf_weight=3.7190466076135653 3.6808981746435157 5.985017001628874 6.0114421397447586 3.3451440632343274 4.3291582316160202 5.2252671867609024
leaf_count=21 18 25 29 19 21 32
internal_value=-0.00414988 0.0121549 0.0390281 -0.0308266 -0.0279016 -0.0444316
internal_weight=32.296 20.0447 11.9965 12.2513 8.0482 8.57041
internal_count=165 96 54 69 42 51
is_linear=0
shrinkage=0.05


Tree=46
num_leaves=7
num_cat=0
split_feature=5 1 1 5 1 5
split_gain=9.73708 8.8048 10.5765 3.63644 0.924077 0.000566293
threshold=0.43500000000000005 0.94500000000000006 0.74500000000000011 0.28500000000000009 0.69000000000000006 0.59500000000000008
decision_type=2 2 2 2 2 2
left_child=1 2 3 -1 5 -2
right_child=4 -3 -4 -5 -6 -7
leaf_value=-0.026529343022050955 -0.050541693378219121 -0.042455267389807615 0.078805513959692819 0.032044182603070383 -0.020879010185214975 -0.049630984706417698
leaf_weight=5.5146371722221428 3.6183608621358854 4.7634363770484915 7.6255739182233802 5.1007210910320282 4.4658459275960922 3.2313262373209
leaf_count=27 21 25 28 23 21 20
internal_value=-0.000601441 0.0180771 0.0338846 0.00161546 -0.0385748 -0.0501121
internal_weight=34.3199 23.0044 18.2409 10.6154 11.3155 6.84969
internal_count=165 103 78 50 62 41
is_linear=0
shrinkage=0.05


Tree=47
num_leaves=5
num_cat=0
split_feature=1 2 7 7
split_gain=16.2166 2.62154 6.97873 0.906446
threshold=0.94500000000000006 0.89500000000000013 0.88500000000000012 0.90500000000000014
decision_type=2 2 2 2
left_child=1 2 -1 -3
right_child=-2 3 -4 -5
leaf_value=-0.042537163235977164 0.06582666783474421 -0.020479857590214087 0.031402375674569709 -0.046603415779204238
leaf_weight=5.9021583795547503 7.2520974576473227 6.3156826645135862 6.9480335414409637 7.0021156370639801
leaf_count=34 29 34 33 35
internal_value=-0.000333982 -0.0186695 -0.00255843 -0.0342149
internal_weight=33.4201 26.168 12.8502 13.3178
internal_count=165 136 67 69
is_linear=0
shrinkage=0.05


Tree=48
num_leaves=1
num_cat=0
split_feature=
split_gain=
threshold=
decision_type=
left_child=
right_child=
leaf_value=0
leaf_weight=
leaf_count=210
internal_value=
internal_weight=
internal_count=
is_linear=0
shrinkage=1


Tree=49
num_leaves=7
num_cat=0
split_feature=4 5 1 5 1 3
split_gain=9.00654 9.20076 3.25559 1.14667 0.876255 0.00103375
threshold=0.30500000000000005 0.55500000000000016 0.76500000000000012 0.44500000000000006 0.62500000000000011 0.81500000000000006
decision_type=2 2 2 2 2 2
left_child=3 2 -2 4 -1 -6
right_child=1 -3 -4 -5 5 -7
leaf_value=-0.014171187848823878 -0.022377637248754797 0.089918516695934134 0.036888587362248343 -0.0062170787470481959 -0.04834958203471388 -0.047059192120483116
leaf_weight=2.8341771960258502 5.4967413544654828 4.4210106134414664 4.0057986602187157 4.4536572098731986 3.1843903884291649 3.0278898030519485
leaf_count=18 35 19 24 26 23 25
internal_value=0.00211454 0.0303295 0.00260606 -0.0269854 -0.0372099 -0.0477206
internal_weight=27.4237 13.9236 9.50254 13.5001 9.04646 6.21228
internal_count=170 78 59 92 66 48
is_linear=0
shrinkage=0.05


Tree=50
num_leaves=6
num_cat=0
split_feature=2 1 3 1 3
split_gain=6.58022 2.05192 2.21629 2.06235 0.827136
threshold=0.83500000000000008 0.97500000000000009 0.80500000000000016 0.76500000000000012 0.58500000000000008
decision_type=2 2 2 2 2
left_child=-1 2 3 4 -2
right_child=1 -3 -4 -5 -6
leaf_value=0.04471376985551246 -0.017669498107110496 -0.048925237716200269 0.019802171938339292 0.011266681396818903 -0.049170760549045719
leaf_weight=6.5701533406972912 4.6127769500017219 3.269897148013114 5.7431624978780738 4.1227805912494651 3.8008637726306915
leaf_count=32 28 22 36 27 25
internal_value=0.000909548 -0.0124458 -0.00592025 -0.0177042 -0.0319002
internal_weight=28.1196 21.5495 18.2796 12.5364 8.41364
internal_count=170 138 116 80 53
is_linear=0
shrinkage=0.05


Tree=51
num_leaves=6
num_cat=0
split_feature=7 7 3 1 3
split_gain=3.67682 7.53375 3.42729 2.08646 0.610674
threshold=0.90500000000000014 0.87500000000000011 0.68500000000000016 0.64500000000000013 0.8650000000000001
decision_type=2 2 2 2 2
left_child=1 -1 -2 -3 -4
right_child=2 3 4 -5 -6
leaf_value=-0.024072123229939082 0.0067921490988564794 0.065834319305944383 -0.05101075985208027 0.018288864419977065 -0.024573628987860179
leaf_weight=6.9162675291299847 7.487116381525996 5.20526175200939 4.884184464812277 4.1448222398757935 3.9516108483076096
leaf_count=37 37 22 28 21 25
internal_value=-0.00133167 0.0154921 -0.0180971 0.0447578 -0.0391873
internal_weight=32.5893 16.2664 16.3229 9.35008 8.8358
internal_count=170 80 90 43 53
is_linear=0
shrinkage=0.05


Tree=52
num_leaves=8
num_cat=0
split_feature=5 5 0 4 1 0 6
split_gain=9.66774 8.89365 1.89505 1.19077 1.07123 1.04493 0.000333681
threshold=0.44500000000000006 0.19000000000000003 0.59500000000000008 0.10500000000000002 0.69000000000000006 0.75500000000000012 0.58500000000000008
decision_type=2 2 2 2 2 2 2
left_child=1 3 -3 -1 6 -4 -2
right_child=4 2 5 -5 -6 -7 -8
leaf_value=-0.039312596030298005 -0.049930043830341483 0.016310419694266831 0.070691429751637863 -0.0024991334871227121 -0.016599093096754169 0.040006856090745641 -0.049207579485010804
leaf_weight=4.1081449091434497 3.2892450690269452 4.6868917793035498 5.161020100116728 4.7208808213472366 4.0025634318590164 6.0000722259283066 3.1087617129087448
leaf_count=24 20 20 20 22 19 25 20
internal_value=0.00354595 0.0205871 0.0429915 -0.0196284 -0.036887 0.0541958 -0.049579
internal_weight=35.0776 24.677 15.848 8.82903 10.4006 11.1611 6.39801
internal_count=170 111 65 46 59 45 40
is_linear=0
shrinkage=0.05


Tree=53
num_leaves=7
num_cat=0
split_feature=2 6 4 4 0 5
split_gain=19.2482 4.56818 2.19922 2.56554 0.00397785 0.000310088
threshold=0.96500000000000008 0.39000000000000007 0.37500000000000006 0.15500000000000003 0.63500000000000012 0.59500000000000008
decision_type=2 2 2 2 2 2
left_child=1 2 3 -1 5 -3
right_child=-2 4 -4 -5 -6 -7
leaf_value=-0.023621224197068538 0.063497684542165853 -0.049910655001659657 -0.035093155386555407 0.025733188176659434 -0.051580061032590052 -0.049239707494074678
leaf_weight=4.5849020630121249 7.9543853402137747 3.4558869749307615 5.1153200268745413 6.1852664947509766 3.8676040172576904 3.4324162602424622
leaf_count=22 31 21 24 29 21 22
internal_value=-0.00475636 -0.0251351 -0.0080984 0.00472283 -0.0502968 -0.0495763
internal_weight=34.5958 26.6414 15.8855 10.7702 10.7559 6.8883
internal_count=170 139 75 51 64 43
is_linear=0
shrinkage=0.05


Tree=54
num_leaves=1
num_cat=0
split_feature=
split_gain=
threshold=
decision_type=
left_child=
right_child=
leaf_value=0
leaf_weight=
leaf_count=210
internal_value=
internal_weight=
internal_count=
is_linear=0
shrinkage=1


Tree=55
num_leaves=8
num_cat=0
split_feature=0 6 5 0 7 3 0
split_gain=6.9481 2.98903 4.07117 1.84153 1.27837 0.281971 0.00097612
threshold=0.35500000000000004 0.34500000000000003 0.30500000000000005 0.6150000000000001 0.87500000000000011 0.62000000000000011 0.92500000000000016
decision_type=2 2 2 2 2 2 2
left_child=-1 3 -3 -2 -4 -5 -7
right_child=1 2 4 5 -6 6 -8
leaf_value=0.06511967915898019 0.0045684366165972918 0.043721496682316535 -0.039060394447221265 -0.027558541273252565 0.00022329482157954544 -0.048042208998214347 -0.046793403657616833
leaf_weight=3.2126957476139095 2.745047494769099 4.2379377260804167 3.5692689865827543 2.4048558101057989 4.933439776301384 4.0422080084681511 2.5531227067112923
leaf_count=13 17 25 19 17 30 30 22
internal_value=-0.00401524 -0.0130862 0.0036869 -0.0312807 -0.0162672 -0.0422147 -0.0475588
internal_weight=27.6986 24.4859 12.7406 11.7452 8.50271 9.00019 6.59533
internal_count=173 160 74 86 49 69 52
is_linear=0
shrinkage=0.05


Tree=56
num_leaves=6
num_cat=0
split_feature=7 5 0 4 0
split_gain=9.97121 2.40618 2.38764 2.69498 0.84815
threshold=0.8650000000000001 0.22500000000000003 0.77500000000000013 0.37500000000000006 0.82000000000000017
decision_type=2 2 2 2 2
left_child=-1 4 3 -3 -2
right_child=1 2 -4 -5 -6
leaf_value=0.055242899897960267 -0.013216921113407214 -0.038818148851666734 0.032249990363564809 0.014290799081807663 -0.048395533168035319
leaf_weight=7.7028588354587582 2.8074237108230617 4.8891141489148122 4.2290341183543196 4.6706620752811432 4.3967458307743073
leaf_count=36 19 33 25 29 31
internal_value=0.00658588 -0.0112676 0.000967991 -0.0128705 -0.0346866
internal_weight=28.6958 20.993 13.7888 9.55978 7.20417
internal_count=173 137 87 62 50
is_linear=0
shrinkage=0.05


Tree=57
num_leaves=6
num_cat=0
split_feature=0 0 0 0 2
split_gain=4.9229 11.5545 2.10739 3.48657 0.455744
threshold=0.6150000000000001 0.49500000000000005 0.80500000000000016 0.93500000000000016 0.90500000000000014
decision_type=2 2 2 2 2
left_child=1 -1 4 -4 -2
right_child=2 -3 3 -5 -6
leaf_value=-0.029292318860030381 -0.026443395432262446 0.058919614588238238 0.020209075859723969 -0.038448148118600298 -0.050939052394940468
leaf_weight=6.6326511800289145 3.8008678555488613 8.4310949891805631 6.1212998628616315 4.3220906555652618 3.7943959534168243
leaf_count=37 20 36 31 27 22
internal_value=-0.00102078 0.0200794 -0.0186412 -0.00406674 -0.0386808
internal_weight=33.1024 15.0637 18.0387 10.4434 7.59526
internal_count=173 73 100 58 42
is_linear=0
shrinkage=0.05


Tree=58
num_leaves=6
num_cat=0
split_feature=1 1 5 6 6
split_gain=7.6921 6.59495 6.81221 2.54876 0.654413
threshold=0.59500000000000008 0.95500000000000007 0.47000000000000003 0.32500000000000007 0.29500000000000004
decision_type=2 2 2 2 2
left_child=4 2 3 -2 -1
right_child=1 -3 -4 -5 -6
leaf_value=-0.023426733913526815 0.060987973553391056 -0.035709509047323319 -0.023823055443623196 0.018677585431400443 -0.050269741536900593
leaf_weight=3.5205609351396543 8.1955040544271522 5.8038763999938956 5.2593834400176993 6.2920857220888129 6.3947653472423553
leaf_count=19 31 31 28 25 39
internal_value=-0.00335921 0.0111464 0.0249179 0.0426122 -0.0407388
internal_weight=35.4662 25.5508 19.747 14.4876 9.91533
internal_count=173 115 84 56 58
is_linear=0
shrinkage=0.05


Tree=59
num_leaves=6
num_cat=0
split_feature=6 0 1 6 2
split_gain=15.8248 6.37273 2.67343 0.793944 0.00188096
threshold=0.10500000000000002 0.70500000000000007 0.7350000000000001 0.37500000000000006 0.85500000000000009
decision_type=2 2 2 2 2
left_child=-1 3 -3 -2 -5
right_child=1 2 -4 4 -6
leaf_value=0.062931135701859639 -0.024928134587198898 0.035038250086629544 -0.011342441424547392 -0.048751403166344714 -0.050240564615122919
leaf_weight=8.1836092025041562 5.3308538347482708 5.5522302091121656 7.0546442717313766 4.0172479599714261 4.4910907447338104
leaf_count=30 27 26 36 27 27
internal_value=0.00217033 -0.0166318 0.00908421 -0.0400579 -0.0495375
internal_weight=34.6297 26.4461 12.6069 13.8392 8.50834
internal_count=173 143 62 81 54
is_linear=0
shrinkage=0.05


Tree=60
num_leaves=1
num_cat=0
split_feature=
split_gain=
threshold=
decision_type=
left_child=
right_child=
leaf_value=0
leaf_weight=
leaf_count=210
internal_value=
internal_weight=
internal_count=
is_linear=0
shrinkage=1


Tree=61
num_leaves=8
num_cat=0
split_feature=1 6 5 3 4 2 1
split_gain=7.39494 3.00552 5.16194 1.80956 1.77099 0.235472 0.000992571
threshold=0.41500000000000004 0.34500000000000003 0.28500000000000009 0.55500000000000016 0.22500000000000003 0.90500000000000014 0.94500000000000006
decision_type=2 2 2 2 2 2 2
left_child=-1 3 -3 -2 -4 -5 -7
right_child=1 2 4 5 -6 6 -8
leaf_value=0.063497022576259762 0.0038733165396354556 0.052800122639585903 0.012941356141577466 -0.029393218085659218 -0.033784936294504089 -0.04777009308062799 -0.046462662611293906
leaf_weight=3.6821674853563335 2.8425995111465481 3.8317887037992469 3.1883213222026807 2.6112149581313115 5.5713330879807472 3.9099083244800568 2.3088981583714485
leaf_count=16 19 21 20 19 32 30 21
internal_value=-0.00252758 -0.0125471 0.00439608 -0.0308239 -0.0167776 -0.0419938 -0.0472847
internal_weight=27.9462 24.2641 12.5914 11.6726 8.75965 8.83002 6.21881
internal_count=178 162 73 89 52 70 51
is_linear=0
shrinkage=0.05


Tree=62
num_leaves=7
num_cat=0
split_feature=3 5 3 3 4 1
split_gain=9.13933 2.55215 2.53208 1.49679 1.54074 0.811978
threshold=0.42500000000000004 0.22500000000000003 0.80500000000000016 0.58500000000000008 0.35500000000000004 0.83000000000000007
decision_type=2 2 2 2 2 2
left_child=-1 5 3 -3 -5 -2
right_child=1 2 -4 4 -6 -7
leaf_value=0.062707240629423858 -0.014435617291738648 0.007097432446618878 0.033623667726653823 -0.048900562869893062 -0.0012711132871330896 -0.048189622669629013
leaf_weight=5.0484145283699062 2.876855522394183 5.8765211626887339 4.1341007947921744 3.7434253841638565 3.1073294281959534 4.6803027093410492
leaf_count=23 19 32 24 26 20 34
internal_value=0.0014663 -0.011195 -0.000373251 -0.0114162 -0.027297 -0.0353402
internal_weight=29.4669 24.4185 16.8614 12.7273 6.85075 7.55716
internal_count=178 155 102 78 46 53
is_linear=0
shrinkage=0.05


Tree=63
num_leaves=6
num_cat=0
split_feature=6 2 3 6 3
split_gain=4.15841 4.5155 3.82488 4.05141 1.18451
threshold=0.21000000000000005 0.83500000000000008 0.68500000000000016 0.43500000000000005 0.70500000000000007
decision_type=2 2 2 2 2
left_child=4 -2 3 -3 -1
right_child=1 2 -4 -5 -6
leaf_value=-0.0053122517435219884 -0.02206373979535084 0.0095448240852465532 -0.0026251984542455904 0.070709429890795553 -0.040659526907874999
leaf_weight=4.2135760337114316 6.5253596007823971 4.7086494415998477 6.9402860403060904 6.3699080646038055 5.4172559827566147
leaf_count=22 35 23 37 26 35
internal_value=0.00264859 0.013574 0.0264798 0.044713 -0.0251948
internal_weight=34.175 24.5442 18.0188 11.0786 9.63083
internal_count=178 121 86 49 57
is_linear=0
shrinkage=0.05


Tree=64
num_leaves=7
num_cat=0
split_feature=5 3 4 4 1 0
split_gain=7.32429 6.87753 3.04705 2.23546 1.29557 0.000849414
threshold=0.44500000000000006 0.83000000000000007 0.15500000000000003 0.32500000000000007 0.69000000000000006 0.50500000000000012
decision_type=2 2 2 2 2 2
left_child=1 2 -1 -4 5 -2
right_child=4 -3 3 -5 -6 -7
leaf_value=0.062435652616913674 -0.048335871374617076 -0.030238724976139227 -0.010615311891769355 0.031382920840585506 -0.011822069066874569 -0.049459783755817777
leaf_weight=5.0339489579200807 3.4147351831197721 6.572675183415412 4.7952886819839469 9.339200556278227 3.629371702671051 3.3112738728523254
leaf_count=20 24 36 20 39 18 21
internal_value=-0.00038783 0.0138975 0.0290314 0.0171345 -0.0358978 -0.0488892
internal_weight=36.0965 25.7411 19.1684 14.1345 10.3554 6.72601
internal_count=178 115 79 59 63 45
is_linear=0
shrinkage=0.05


Tree=65
num_leaves=7
num_cat=0
split_feature=0 4 7 2 2 1
split_gain=14.2551 2.04117 2.76958 3.35451 1.89068 1.63551
threshold=0.93500000000000016 0.37500000000000006 0.90500000000000014 0.89500000000000013 0.89500000000000013 0.58500000000000008
decision_type=2 2 2 2 2 2
left_child=1 2 4 -4 -1 -3
right_child=-2 5 3 -5 -6 -7
leaf_value=-0.050254881465268235 0.058317922640564249 -0.0093935516641677156 0.040626093687263193 -0.02018569331060353 -0.0037987496850712824 -0.05203542952085443
leaf_weight=4.6169919669628197 7.7963605821132651 3.5185147374868375 4.680638059973715 4.3990695178508759 4.1666452884674072 6.2305057942867279
leaf_count=29 28 20 22 22 23 34
internal_value=-0.00138631 -0.0182438 -0.00820096 0.0111631 -0.0282177 -0.0366456
internal_weight=35.4087 27.6124 17.8633 9.07971 8.78364 9.74902
internal_count=178 150 96 44 52 54
is_linear=0
shrinkage=0.05


Tree=66
num_leaves=1
num_cat=0
split_feature=
split_gain=
threshold=
decision_type=
left_child=
right_child=
leaf_value=0
leaf_weight=
leaf_count=210
internal_value=
internal_weight=
internal_count=
is_linear=0
shrinkage=1


Tree=67
num_leaves=7
num_cat=0
split_feature=6 5 5 0 5 0
split_gain=4.35751 2.93033 5.17877 2.47 2.33195 0.00204213
threshold=0.25500000000000006 0.28500000000000009 0.55500000000000016 0.63500000000000012 0.30500000000000005 0.90500000000000014
decision_type=2 2 2 2 2 2
left_child=4 -2 3 -3 5 -1
right_child=1 2 -4 -5 -6 -7
leaf_value=-0.04817930949177008 0.048685728070089092 -0.049316979062104527 0.040155826230911552 0.0077468353841911091 0.011624278572698011 -0.046206525053475785
leaf_weight=2.8737782314419773 5.026364371180537 4.1119279190897924 5.6483680754899979 3.5194276496767998 2.4630393981933594 2.4134503901004791
leaf_count=21 30 27 25 24 17 23
internal_value=0.00286536 0.0161697 0.00386239 -0.0230003 -0.0285594 -0.0472788
internal_weight=26.0564 18.3061 13.2797 7.63136 7.75027 5.28723
internal_count=167 106 76 51 61 44
is_linear=0
shrinkage=0.05


Tree=68
num_leaves=6
num_cat=0
split_feature=7 4 2 6 6
split_gain=6.23565 2.1487 1.68909 1.75831 0.741585
threshold=0.87500000000000011 0.10500000000000002 0.88500000000000012 0.43500000000000005 0.25500000000000006
decision_type=2 2 2 2 2
left_child=-1 -2 -3 4 -4
right_child=1 2 3 -5 -6
leaf_value=0.036768309719881459 0.013486399747445614 -0.049984161012816532 -0.012538835888582631 0.012152928216958625 -0.048453777405420159
leaf_weight=8.131249815225603 4.8011411279439953 4.6373186856508246 2.7929253727197629 3.9957475066184998 2.961238220334053
leaf_count=39 34 29 20 24 21
internal_value=7.27228e-05 -0.0154774 -0.0251428 -0.0133276 -0.0310216
internal_weight=27.3196 19.1884 14.3872 9.74991 5.75416
internal_count=167 128 94 65 41
is_linear=0
shrinkage=0.05


Tree=69
num_leaves=5
num_cat=0
split_feature=5 0 3 0
split_gain=6.77454 4.00651 5.48405 2.12241
threshold=0.28500000000000009 0.68500000000000016 0.47500000000000003 0.80500000000000016
decision_type=2 2 2 2
left_child=3 2 -2 -1
right_child=1 -3 -4 -5
leaf_value=-0.052086167161055644 -0.016109854911548063 -0.015191337904907046 0.053917980640442446 -0.010377723372274177
leaf_weight=6.0223053097724897 4.0346682667732265 6.659584403038024 9.10475906729698 6.1803617924451828
leaf_count=33 22 35 39 38
internal_value=-0.00165843 0.016402 0.0324148 -0.0309618
internal_weight=32.0017 19.799 13.1394 12.2027
internal_count=167 96 61 71
is_linear=0
shrinkage=0.05


Tree=70
num_leaves=6
num_cat=0
split_feature=1 1 5 2 6
split_gain=7.21739 8.42435 6.17807 8.8414 0.605892
threshold=0.59500000000000008 0.91000000000000014 0.43500000000000005 0.93500000000000016 0.42500000000000004
decision_type=2 2 2 2 2
left_child=4 2 3 -2 -1
right_child=1 -3 -4 -5 -6
leaf_value=-0.051415034206640058 0.093225452420873586 -0.036860153924356098 -0.015218139645709942 0.0093949655048867139 -0.025582047757646772
leaf_weight=5.0442030876874906 5.9479445070028358 6.4341377615928641 5.3498158752918235 6.6749790459871292 4.1267498284578323
leaf_count=28 22 36 29 25 27
internal_value=-0.00197407 0.0122356 0.0298116 0.048896 -0.0397907
internal_weight=33.5778 24.4069 17.9727 12.6229 9.17095
internal_count=167 112 76 47 55
is_linear=0
shrinkage=0.05


Tree=71
num_leaves=7
num_cat=0
split_feature=6 4 6 0 6 0
split_gain=15.9295 5.05725 4.45431 3.66231 0.24897 0.0059683
threshold=0.15500000000000003 0.10500000000000002 0.39000000000000007 0.70500000000000007 0.57500000000000007 0.63500000000000012
decision_type=2 2 2 2 2 2
left_child=1 -1 3 -2 5 -4
right_child=2 -3 4 -5 -6 -7
leaf_value=0.082380846397282839 -0.032145943022613428 0.013437907311855441 -0.048612256905082259 0.025271289984116381 -0.033504502217813287 -0.051362723145875255
leaf_weight=5.9034026861190778 5.0471182763576525 4.8413988202810287 3.9302304834127408 6.1751444935798645 3.2256540656089783 3.95916947722435
leaf_count=20 27 20 27 29 22 22
internal_value=0.00129103 0.0513165 -0.0227725 -0.000551628 -0.0452076 -0.0499925
internal_weight=33.0821 10.7448 22.3373 11.2223 11.1151 7.8894
internal_count=167 40 127 56 71 49
is_linear=0
shrinkage=0.05


Tree=72
num_leaves=1
num_cat=0
split_feature=
split_gain=
threshold=
decision_type=
left_child=
right_child=
leaf_value=0
leaf_weight=
leaf_count=210
internal_value=
internal_weight=
internal_count=
is_linear=0
shrinkage=1


Tree=73
num_leaves=6
num_cat=0
split_feature=0 4 0 5 5
split_gain=11.1637 2.2822 1.63443 4.08332 0.270868
threshold=0.35500000000000004 0.40500000000000008 0.63500000000000012 0.33500000000000008 0.12500000000000003
decision_type=2 2 2 2 2
left_child=-1 2 -2 4 -4
right_child=1 -3 3 -5 -6
leaf_value=0.080811703579869443 -0.050689869766513088 0.0055353716960100455 -0.027919343703706353 0.028868241704379474 -0.048860096232192785
leaf_weight=3.1391746997833279 6.0100616291165379 6.2386701181530944 2.5892856195569021 3.1821328476071358 3.8260797783732414
leaf_count=12 37 39 23 21 28
internal_value=-0.0073565 -0.0200257 -0.0302431 -0.017439 -0.0404083
internal_weight=24.9854 21.8462 15.6076 9.5975 6.41537
internal_count=160 148 109 72 51
is_linear=0
shrinkage=0.05


Tree=74
num_leaves=6
num_cat=0
split_feature=7 3 1 2 0
split_gain=5.24937 3.20359 3.79475 0.80822 0.680269
threshold=0.87500000000000011 0.80500000000000016 0.78500000000000014 0.89500000000000013 0.50500000000000012
decision_type=2 2 2 2 2
left_child=4 3 -3 -2 -1
right_child=1 2 -4 -5 -6
leaf_value=0.043658413280855179 -0.020940246733143025 0.043264246948716639 -0.031706419383324226 -0.048479577578763297 0.015766276113475707
leaf_weight=4.3741839826107043 5.2740560770034808 3.7000332474708548 3.1037334948778152 5.3837714493274689 4.3699560388922691
leaf_count=18 35 21 24 39 23
internal_value=-0.00190433 -0.0177402 0.00906423 -0.0348517 0.0297191
internal_weight=26.2057 17.4616 6.80377 10.6578 8.74414
internal_count=160 119 45 74 41
is_linear=0
shrinkage=0.05


Tree=75
num_leaves=6
num_cat=0
split_feature=4 4 0 4 7
split_gain=5.63452 5.45247 5.43907 4.78264 2.05589
threshold=0.12500000000000003 0.31500000000000006 0.68500000000000016 0.55500000000000016 0.91500000000000015
decision_type=2 2 2 2 2
left_child=-1 2 -2 4 -3
right_child=1 3 -4 -5 -6
leaf_value=-0.033816115520878522 0.075184074450776336 -0.0031382256590757069 0.0060421604469516107 0.042356319985042197 -0.052552465210937038
leaf_weight=6.1082279458642033 6.4693494290113467 5.0874173268675786 5.0761370211839676 4.0254975110292426 3.5904745310544968
leaf_count=39 27 29 27 19 19
internal_value=0.00910356 0.0199149 0.0447849 -0.00268814 -0.0235833
internal_weight=30.3571 24.2489 11.5455 12.7034 8.67789
internal_count=160 121 54 67 48
is_linear=0
shrinkage=0.05


Tree=76
num_leaves=7
num_cat=0
split_feature=5 3 3 5 4 3
split_gain=7.01044 5.65994 3.39033 1.96039 0.830234 0.581712
threshold=0.44500000000000006 0.80500000000000016 0.68500000000000016 0.24000000000000002 0.095000000000000015 0.62000000000000011
decision_type=2 2 2 2 2 2
left_child=1 2 3 -1 -3 -2
right_child=5 4 -4 -5 -6 -7
leaf_value=-0.009941167581688802 -0.048695066736495277 -0.038503474254012265 0.065665308344081089 0.033484420461666296 -0.0050051893357888483 -0.021988969769258453
leaf_weight=4.3972398042678886 5.2660787552595121 3.6483880728483191 4.9689348191022864 6.3547837138175964 3.7517541646957397 3.3274502009153366
leaf_count=21 37 23 18 26 17 18
internal_value=0.000205144 0.0145367 0.0315095 0.0157247 -0.0215204 -0.0383544
internal_weight=31.7146 23.1211 15.721 10.752 7.40014 8.59353
internal_count=160 105 65 47 40 55
is_linear=0
shrinkage=0.05


Tree=77
num_leaves=6
num_cat=0
split_feature=1 4 1 6 5
split_gain=11.7193 4.55268 4.39683 3.62616 0.472827
threshold=0.94500000000000006 0.32500000000000007 0.66500000000000015 0.37500000000000006 0.41000000000000009
decision_type=2 2 2 2 2
left_child=1 2 3 -1 -3
right_child=-2 4 -4 -5 -6
leaf_value=0.048368085459579158 0.05243624875192196 -0.053372799101013363 -0.039167630339090327 -0.01887918127624346 -0.032239476734395901
leaf_weight=5.1482820361852699 7.5903416275978079 5.5447596535086614 4.4679635614156714 3.282982736825943 5.0638949200510979
leaf_count=22 29 30 27 22 30
internal_value=-0.00158063 -0.0190219 0.000932844 0.0221832 -0.0432851
internal_weight=31.0982 23.5079 12.8992 8.43126 10.6087
internal_count=160 131 71 44 60
is_linear=0
shrinkage=0.05


Tree=78
num_leaves=1
num_cat=0
split_feature=
split_gain=
threshold=
decision_type=
left_child=
right_child=
leaf_value=0
leaf_weight=
leaf_count=210
internal_value=
internal_weight=
internal_count=
is_linear=0
shrinkage=1


Tree=79
num_leaves=7
num_cat=0
split_feature=4 0 5 4 7 1
split_gain=5.56025 5.05878 3.86177 2.31353 2.92227 0.925167
threshold=0.31500000000000006 0.48500000000000004 0.30500000000000005 0.19500000000000003 0.90500000000000014 0.91000000000000014
decision_type=2 2 2 2 2 2
left_child=3 -2 -3 4 -1 -6
right_child=1 2 -4 -5 5 -7
leaf_value=0.033818383315760675 0.067208967621334062 0.038863918664291508 -0.035724087441684448 -0.050765010256372159 -0.048334153780410359 -0.005538187104046602
leaf_weight=3.0057411715388316 4.7049658149480802 3.3369120731949806 3.6156855225563049 4.2663268893957129 2.7101097255945206 2.364815779030323
leaf_count=21 20 20 24 28 20 21
internal_value=0.00240437 0.0271699 7.4564e-05 -0.0209783 -0.00525184 -0.0283921
internal_weight=24.0046 11.6576 6.9526 12.347 8.08067 5.07493
internal_count=154 64 44 90 62 41
is_linear=0
shrinkage=0.05


Tree=80
num_leaves=6
num_cat=0
split_feature=6 5 3 5 3
split_gain=7.05895 1.97081 1.86716 2.28001 1.77976
threshold=0.55500000000000016 0.27500000000000008 0.78500000000000014 0.49500000000000005 0.83000000000000007
decision_type=2 2 2 2 2
left_child=1 4 3 -3 -1
right_child=-2 2 -4 -5 -6
leaf_value=-0.048461697912829227 0.056097046780283377 0.014185593593219428 0.034397802835530858 -0.037997072685799445 0.00078471504371238382
leaf_weight=4.6114258170127931 5.273345820605754 4.6989233642816526 3.4892868846654883 3.7749085873365402 3.0468008369207382
leaf_count=33 24 32 20 22 23
internal_value=0.00473908 -0.00906367 0.00361489 -0.00906065 -0.0288692
internal_weight=24.8947 19.6213 11.9631 8.47383 7.65823
internal_count=154 130 74 54 56
is_linear=0
shrinkage=0.05


Tree=81
num_leaves=7
num_cat=0
split_feature=1 2 1 7 6 6
split_gain=5.29436 4.94928 3.00566 2.03125 0.28653 0.00823388
threshold=0.74500000000000011 0.83500000000000008 0.96500000000000008 0.92500000000000016 0.40500000000000008 0.29500000000000004
decision_type=2 2 2 2 2 2
left_child=1 -1 5 4 -3 -2
right_child=2 3 -4 -5 -6 -7
leaf_value=-0.030681362600065584 -0.048591859673427315 0.051645930478633612 0.0070289762583954588 0.0036192059440309579 0.034260184662672076 -0.052162034043704078
leaf_weight=4.5798612833023133 3.1451981067657453 4.5485796481370908 3.5135617852210999 5.1617834866046897 4.9476529657840729 3.3193898797035217
leaf_count=26 22 20 23 25 20 18
internal_value=-0.000639789 0.0146892 -0.030194 0.0288651 0.0425877 -0.050425
internal_weight=29.216 19.2379 9.97815 14.658 9.49623 6.46459
internal_count=154 91 63 65 40 40
is_linear=0
shrinkage=0.05


Tree=82
num_leaves=6
num_cat=0
split_feature=1 0 5 6 7
split_gain=8.31953 5.37181 6.22247 1.26632 0.253913
threshold=0.59500000000000008 0.90500000000000014 0.43500000000000005 0.27500000000000008 0.87500000000000011
decision_type=2 2 2 2 2
left_child=4 2 3 -2 -1
right_child=1 -3 -4 -5 -6
leaf_value=-0.032932600010907198 0.063308405119385167 -0.032113488082294951 -0.02119386894663744 0.030775337539585602 -0.050791644064958397
leaf_weight=3.099846616387369 5.7255482971668297 4.9666563123464575 4.7724987715482703 6.263008251786232 5.5601112172007561
leaf_count=22 20 29 26 24 33
internal_value=-0.00295896 0.0135577 0.027091 0.0463126 -0.044399
internal_weight=30.3877 21.7277 16.7611 11.9886 8.65996
internal_count=154 99 70 44 55
is_linear=0
shrinkage=0.05


Tree=83
num_leaves=5
num_cat=0
split_feature=6 6 6 0
split_gain=13.2243 2.43396 3.23035 0.00432241
threshold=0.18500000000000003 0.43500000000000005 0.30500000000000005 0.55500000000000016
decision_type=2 2 2 2
left_child=-1 2 -2 -3
right_child=1 3 -4 -5
leaf_value=0.044986727159329769 -0.036978594052306225 -0.047412474904004659 0.014428040086633762 -0.049833049595873216
leaf_weight=9.8543124347925204 6.3721728324890154 3.5600754618644705 5.8721750229597092 3.8267129138112068
leaf_count=38 34 28 30 24
internal_value=-0.00227521 -0.0259995 -0.0123249 -0.0486664
internal_weight=29.4854 19.6311 12.2443 7.38679
internal_count=154 116 64 52
is_linear=0
shrinkage=0.05


Tree=84
num_leaves=1
num_cat=0
split_feature=
split_gain=
threshold=
decision_type=
left_child=
right_child=
leaf_value=0
leaf_weight=
leaf_count=210
internal_value=
internal_weight=
internal_count=
is_linear=0
shrinkage=1


Tree=85
num_leaves=7
num_cat=0
split_feature=0 4 1 5 1 3
split_gain=6.98495 2.26103 2.50083 1.45053 0.813588 0.290938
threshold=0.35500000000000004 0.16500000000000004 0.85500000000000009 0.45500000000000007 0.66500000000000015 0.83000000000000007
decision_type=2 2 2 2 2 2
left_child=-1 5 3 4 -3 -2
right_child=1 2 -4 -5 -6 -7
leaf_value=0.061330649524311089 -0.04815770633969426 -0.048227046270371748 0.032710606018568775 0.0018064407291564354 -0.011843782018166374 -0.025930925617449297
leaf_weight=3.5391369611024883 3.8956598564982441 3.4474324285984057 3.5490449070930472 6.4692270085215569 2.7720359116792679 2.3667125627398491
leaf_count=13 30 25 20 36 22 22
internal_value=-0.0039645 -0.0142351 -0.00439182 -0.0147694 -0.0320109 -0.0397576
internal_weight=26.0392 22.5001 16.2377 12.6887 6.21947 6.26237
internal_count=168 155 103 83 47 52
is_linear=0
shrinkage=0.05


Tree=86
num_leaves=7
num_cat=0
split_feature=3 1 4 4 3 6
split_gain=6.61972 3.03477 2.60652 3.69048 0.843129 0.00768046
threshold=0.42500000000000004 0.47500000000000003 0.10500000000000002 0.47500000000000003 0.78500000000000014 0.42500000000000004
decision_type=2 2 2 2 2 2
left_child=-1 -2 -3 4 5 -4
right_child=1 2 3 -5 -6 -7
leaf_value=0.055031032199388111 0.037505764933994296 0.018852387447557833 -0.047922891615080565 0.017314716017714792 -0.018639335430642216 -0.051140503568385114
leaf_weight=5.2747452408075359 3.2237377092242268 4.3684301823377636 4.175002843141554 3.7704658657312384 3.1807055622339249 3.3370363414287567
leaf_count=23 16 31 32 26 20 20
internal_value=0.00471279 -0.00732128 -0.0149951 -0.0252183 -0.0402163 -0.0493522
internal_weight=27.3301 22.0554 18.8316 14.4632 10.6927 7.51204
internal_count=168 145 129 98 72 52
is_linear=0
shrinkage=0.05


Tree=87
num_leaves=7
num_cat=0
split_feature=3 3 4 1 5 2
split_gain=4.13129 4.23948 5.16623 4.67366 1.61242 0.433182
threshold=0.42500000000000004 0.68500000000000016 0.18500000000000003 0.59500000000000008 0.49500000000000005 0.94500000000000006
decision_type=2 2 2 2 2 2
left_child=-1 2 -2 -3 -4 -5
right_child=1 3 4 5 -6 -7
leaf_value=-0.051153942105942853 0.064745470993717066 0.032165198489729874 -0.014288683791349371 -0.026641058892523967 0.024826107437563763 -0.048954965071997848
leaf_weight=3.9257522672414806 4.6913102120161083 3.2822669297456732 6.3464854508638364 4.3280938640236837 4.5049330219626427 4.3721229955554008
leaf_count=23 20 14 32 28 20 31
internal_value=-0.0031696 0.00367411 0.0209035 -0.0186745 0.0019497 -0.0378545
internal_weight=31.451 27.5252 15.5427 11.9825 10.8514 8.70022
internal_count=168 145 72 73 52 59
is_linear=0
shrinkage=0.05


Tree=88
num_leaves=6
num_cat=0
split_feature=1 1 5 2 5
split_gain=6.93744 5.20937 4.08881 5.83899 0.593531
threshold=0.59500000000000008 0.95500000000000007 0.43500000000000005 0.93500000000000016 0.32500000000000007
decision_type=2 2 2 2 2
left_child=4 2 3 -2 -1
right_child=1 -3 -4 -5 -6
leaf_value=-0.021179420051971893 0.06995582390494598 -0.031804338378081901 -0.012372458194406714 0.0062175652873993348 -0.048199875744725368
leaf_weight=3.358738034963606 7.641645506024366 4.7808300852775565 5.0288531035184851 6.7822304666042328 5.1463967487215996
leaf_count=19 28 28 28 26 39
internal_value=0.00132212 0.0149576 0.0264501 0.0399855 -0.0375293
internal_weight=32.7387 24.2336 19.4527 14.4239 8.50513
internal_count=168 110 82 54 58
is_linear=0
shrinkage=0.05


Tree=89
num_leaves=7
num_cat=0
split_feature=6 2 6 1 0 5
split_gain=8.34104 4.52174 2.47387 2.36025 0.673065 0.00104664
threshold=0.39000000000000007 0.96500000000000008 0.30500000000000005 0.76500000000000012 0.71500000000000008 0.59500000000000008
decision_type=2 2 2 2 2 2
left_child=1 2 3 -1 5 -2
right_child=4 -3 -4 -5 -6 -7
leaf_value=0.0098353647951049793 -0.048249526126315591 0.052489228274910572 0.034725485437917168 -0.03654408284076751 -0.019446214309484351 -0.046944359488498164
leaf_weight=6.6533133536577278 3.7107492685317975 6.573039934039115 4.446960821747779 4.6675443947315216 3.1566700413823128 2.6210166439414024
leaf_count=30 27 25 21 25 18 22
internal_value=0.000968736 0.0176494 0.00312596 -0.0092867 -0.0383065 -0.0477093
internal_weight=31.8293 22.3409 15.7678 11.3209 9.48844 6.33177
internal_count=168 101 76 55 67 49
is_linear=0
shrinkage=0.05


Tree=90
num_leaves=1
num_cat=0
split_feature=
split_gain=
threshold=
decision_type=
left_child=
right_child=
leaf_value=0
leaf_weight=
leaf_count=210
internal_value=
internal_weight=
internal_count=
is_linear=0
shrinkage=1


Tree=91
num_leaves=8
num_cat=0
split_feature=0 6 3 1 0 6 2
split_gain=5.2126 2.61119 4.18586 1.649 0.8141 0.343126 0.000356137
threshold=0.35500000000000004 0.34500000000000003 0.67500000000000016 0.64500000000000013 0.60500000000000009 0.10500000000000002 0.89500000000000013
decision_type=2 2 2 2 2 2 2
left_child=-1 4 3 -3 -2 -6 -7
right_child=1 2 -4 -5 5 6 -8
leaf_value=0.050675494005558666 -0.0064134284375623775 -0.039908910340605994 0.043199468475346427 0.0065926206945495312 -0.024065574492142461 -0.04795856819626719 -0.047112538677050841
leaf_weight=3.8359138965606716 2.361618824303152 4.2077395096421224 4.2048761993646622 3.4858079925179482 2.2693279683589935 2.2907687500119209 2.7219182997941971
leaf_count=14 17 25 24 21 23 17 24
internal_value=-0.00302497 -0.0125872 0.00308467 -0.0188399 -0.0319234 -0.0401964 -0.0474992
internal_weight=25.378 21.5421 11.8984 7.69355 9.64363 7.28202 5.01269
internal_count=165 151 70 46 81 64 41
is_linear=0
shrinkage=0.05


Tree=92
num_leaves=7
num_cat=0
split_feature=0 0 2 4 6 6
split_gain=4.59844 2.09938 3.26204 2.47383 1.18458 0.827573
threshold=0.43500000000000005 0.7350000000000001 0.90500000000000014 0.27500000000000008 0.45500000000000007 0.29500000000000004
decision_type=2 2 2 2 2 2
left_child=-1 4 -3 -4 5 -2
right_child=1 2 3 -5 -6 -7
leaf_value=0.043843706941211404 -0.032388770033667864 0.035912217611360014 -0.047394343557149977 0.014706800043976743 -0.050252307172322701 0.0028342677223581331
leaf_weight=5.2990252301096943 3.0593993514776248 5.1556473895907384 3.3298221230506897 3.0934904217720032 3.1731572523713112 3.665669173002243
leaf_count=23 22 31 27 20 20 22
internal_value=0.0021288 -0.00816345 0.00628997 -0.0174862 -0.0250711 -0.0131896
internal_weight=26.7762 21.4772 11.579 6.42331 9.89823 6.72507
internal_count=165 142 78 47 64 44
is_linear=0
shrinkage=0.05


Tree=93
num_leaves=6
num_cat=0
split_feature=6 4 0 4 6
split_gain=3.07041 3.45543 3.39014 3.22697 1.0755
threshold=0.12500000000000003 0.31500000000000006 0.66500000000000015 0.55500000000000016 0.40500000000000008
decision_type=2 2 2 2 2
left_child=-1 2 -2 4 -3
right_child=1 3 -4 -5 -6
leaf_value=-0.038372476183117149 0.043600539922505642 -0.014045236480857849 -0.0030677791157759024 0.025329629454960909 -0.051858512592857599
leaf_weight=4.1585374474525478 8.7566325888037699 3.9298851862549764 7.0040938630700103 3.6143422275781631 3.6058194488286972
leaf_count=28 38 22 39 17 21
internal_value=0.00161236 0.00779124 0.0228611 -0.0135101 -0.0321388
internal_weight=31.0693 26.9108 15.7607 11.15 7.5357
internal_count=165 137 77 60 43
is_linear=0
shrinkage=0.05


Tree=94
num_leaves=6
num_cat=0
split_feature=2 1 1 6 3
split_gain=5.46728 4.78691 5.77347 2.78411 0.644739
threshold=0.8650000000000001 0.59500000000000008 0.85500000000000009 0.30500000000000005 0.51500000000000012
decision_type=2 2 2 2 2
left_child=4 -2 3 -3 -1
right_child=1 2 -4 -5 -6
leaf_value=-0.022184648640385898 -0.031343099505106151 0.060197901033867365 -0.020081921349933363 0.014217010324367145 -0.05155001681222765
leaf_weight=3.4126544445753124 5.3543755039572742 7.5289775431156176 5.67777545005083 5.8500478863716125 4.1328402981162071
leaf_count=23 34 27 32 24 25
internal_value=-0.00107023 0.0104278 0.0221642 0.0400925 -0.0382687
internal_weight=31.9567 24.4112 19.0568 13.379 7.54549
internal_count=165 117 83 51 48
is_linear=0
shrinkage=0.05


Tree=95
num_leaves=7
num_cat=0
split_feature=6 6 6 1 0 0
split_gain=9.59998 3.18765 3.80861 0.993873 0.476661 0.000704261
threshold=0.15500000000000003 0.39000000000000007 0.30500000000000005 0.74500000000000011 0.71500000000000008 0.44500000000000006
decision_type=2 2 2 2 2 2
left_child=-1 2 3 -2 5 -3
right_child=1 4 -4 -5 -6 -7
leaf_value=0.044877629556834039 -0.0033723592199377973 -0.046608811339377693 0.037530608745232202 -0.039137953210628997 -0.02471408663069646 -0.047724783219479587
leaf_weight=8.6049887984991091 3.9144903421401995 2.2606281116604787 4.2997649013996124 3.8555768132209778 3.8078347891569138 3.773693859577179
leaf_count=32 19 20 20 23 22 29
internal_value=0.000126905 -0.017447 -0.00022599 -0.0211196 -0.0385658 -0.0473067
internal_weight=30.517 21.912 12.0698 7.77007 9.84216 6.03432
internal_count=165 133 62 42 71 49
is_linear=0
shrinkage=0.05


Tree=96
num_leaves=1
num_cat=0
split_feature=
split_gain=
threshold=
decision_type=
left_child=
right_child=
leaf_value=0
leaf_weight=
leaf_count=210
internal_value=
internal_weight=
internal_count=
is_linear=0
shrinkage=1


Tree=97
num_leaves=7
num_cat=0
split_feature=4 0 2 0 6 6
split_gain=5.40127 5.61936 1.69699 1.75294 1.52705 0.00299672
threshold=0.30500000000000005 0.59500000000000008 0.84500000000000008 0.84500000000000008 0.40500000000000008 0.36500000000000005
decision_type=2 2 2 2 2 2
left_child=2 -2 -1 5 -3 -4
right_child=1 4 3 -5 -6 -7
leaf_value=0.013345275254192724 0.055656804139845195 -0.032672304738902223 -0.046759325251360895 -0.001168269889531589 0.017688500777952889 -0.049140089479913732
leaf_weight=3.0332877635955837 7.7773465067148191 3.1549223363399506 2.6940501332283002 3.227473109960556 2.8787128180265427 2.5948545411229134
leaf_count=17 35 23 25 29 17 18
internal_value=0.00646395 0.0275653 -0.0187688 -0.030207 -0.00864462 -0.0479274
internal_weight=25.3606 13.811 11.5497 8.51638 6.03364 5.2889
internal_count=164 75 89 72 40 43
is_linear=0
shrinkage=0.05


Tree=98
num_leaves=7
num_cat=0
split_feature=6 3 7 5 4 7
split_gain=5.31327 2.36697 2.77337 3.67245 0.639084 0.00260528
threshold=0.21000000000000005 0.42500000000000004 0.90500000000000014 0.35500000000000004 0.27500000000000008 0.93500000000000016
decision_type=2 2 2 2 2 2
left_child=5 -2 4 -4 -3 -1
right_child=1 2 3 -5 -6 -7
leaf_value=-0.049049632658837827 0.037809385777678922 -0.037411855730260228 -0.011245552775348756 0.061435012970118934 -0.0099985860852585731 -0.046936412265108002
leaf_weight=2.7284232303500202 4.5674014091491726 3.816940099000929 4.0320900678634635 3.0548249185085297 4.7993274256587029 3.133558914065361
leaf_count=19 19 25 30 16 28 27
internal_value=-0.00599523 0.00612885 -0.00308569 0.0200835 -0.0221425 -0.04792
internal_weight=26.1326 20.2706 15.7032 7.08691 8.61627 5.86198
internal_count=164 118 99 46 53 46
is_linear=0
shrinkage=0.05


Tree=99
num_leaves=7
num_cat=0
split_feature=3 7 1 2 3 5
split_gain=4.31652 6.65248 3.37183 1.73596 1.87625 0.70295
threshold=0.44500000000000006 0.91500000000000015 0.69000000000000006 0.90500000000000014 0.75500000000000012 0.47000000000000003
decision_type=2 2 2 2 2 2
left_child=-1 2 5 -3 -5 -2
right_child=1 3 -4 4 -6 -7
leaf_value=-0.041052432872729278 0.036368871571459231 -0.041981634057837634 -0.00085005965501585591 0.027506934190326252 -0.024477462133770708 0.062692700052488934
leaf_weight=4.610757231712344 5.015166640281679 4.3984851613640767 4.8938517719507209 3.0605046898126602 4.0099369883537292 5.1305430233478546
leaf_count=27 20 23 28 16 30 20
internal_value=0.00359832 0.0113647 0.0332379 -0.0173184 -0.00197555 0.0496805
internal_weight=31.1192 26.5085 15.0396 11.4689 7.07044 10.1457
internal_count=164 137 68 69 46 40
is_linear=0
shrinkage=0.05


Tree=100
num_leaves=6
num_cat=0
split_feature=7 4 0 6 1
split_gain=3.37099 3.11754 4.41443 3.78552 2.36716
threshold=0.8650000000000001 0.50500000000000012 0.80500000000000016 0.32500000000000007 0.80500000000000016
decision_type=2 2 2 2 2
left_child=-1 2 3 -2 -4
right_child=1 -3 4 -5 -6
leaf_value=-0.041414050691417008 0.057042928432914856 -0.029505160874509669 0.013143238594830204 0.0035653822489544445 -0.042329120126076564
leaf_weight=4.7996521368622806 6.651855289936071 5.4655314832925788 3.5311520621180525 6.5852801874279976 4.2232421860098839
leaf_count=32 26 28 18 34 26
internal_value=-0.00286241 0.00413136 0.0128892 0.0304386 -0.0170684
internal_weight=31.2567 26.4571 20.9915 13.2371 7.75439
internal_count=164 132 104 60 44
is_linear=0
shrinkage=0.05


Tree=101
num_leaves=7
num_cat=0
split_feature=6 7 4 2 6 0
split_gain=10.082 5.09264 1.49446 0.622712 0.329249 0.00622593
threshold=0.39000000000000007 0.93500000000000016 0.10500000000000002 0.90500000000000014 0.58500000000000008 0.63500000000000012
decision_type=2 2 2 2 2 2
left_child=1 3 -3 -1 5 -2
right_child=4 2 -4 -5 -6 -7
leaf_value=0.0049720794879096336 -0.047252338783718352 0.063208634919209944 0.024471766405676929 -0.020078218932460951 -0.027458773858539898 -0.050232891115662454
leaf_weight=5.7485205158591324 4.0228589028120023 5.1601186692714673 4.8115115314722061 4.3643509745597839 2.4991419911384583 3.1039026379585266
leaf_count=28 33 19 21 23 21 19
internal_value=-0.0010019 0.0191622 0.0445173 -0.00583873 -0.0430745 -0.0485505
internal_weight=29.7104 20.0845 9.97163 10.1129 9.6259 7.12676
internal_count=164 91 40 51 73 52
is_linear=0
shrinkage=0.05


Tree=102
num_leaves=1
num_cat=0
split_feature=
split_gain=
threshold=
decision_type=
left_child=
right_child=
leaf_value=0
leaf_weight=
leaf_count=210
internal_value=
internal_weight=
internal_count=
is_linear=0
shrinkage=1


Tree=103
num_leaves=7
num_cat=0
split_feature=1 1 6 6 0 1
split_gain=3.30502 2.13175 4.88642 0.947886 1.12914 2.237
threshold=0.41500000000000004 0.85500000000000009 0.34500000000000003 0.18500000000000003 0.56500000000000006 0.6150000000000001
decision_type=2 2 2 2 2 2
left_child=-1 3 -3 -2 -5 -6
right_child=1 2 -4 4 5 -7
leaf_value=0.040286474221132018 0.0055861978136000469 -0.02333609681201828 0.06048102128472306 -0.043105783904830296 0.021389208117021274 -0.036177410900129429
leaf_weight=3.75758267939091 2.8020828738808659 4.0881315395236006 3.0259173959493637 5.6863206401467306 2.8135080933570862 4.2169908434152603
leaf_count=15 23 36 14 34 19 34
internal_value=-0.00313946 -0.0103492 0.012315 -0.0207387 -0.0265392 -0.01314
internal_weight=26.3905 22.633 7.11405 15.5189 12.7168 7.0305
internal_count=175 160 50 110 87 53
is_linear=0
shrinkage=0.05


Tree=104
num_leaves=7
num_cat=0
split_feature=0 3 2 3 1 0
split_gain=4.64086 2.47652 5.19318 2.11086 1.47072 1.18346
threshold=0.43500000000000005 0.80500000000000016 0.96500000000000008 0.44500000000000006 0.66500000000000015 0.77500000000000013
decision_type=2 2 2 2 2 2
left_child=-1 3 -3 -2 -5 -6
right_child=1 2 -4 4 5 -7
leaf_value=0.046367127323686447 0.016279633095539602 0.052749553453184987 -0.032263252711729869 -0.0490692767845161 -0.033762753010052785 0.0072645222742102325
leaf_weight=5.0570737272501018 3.4765939936041859 4.2985217943787566 3.0861430913209915 4.8866336271166784 3.5340454280376434 3.49703099578619
leaf_count=21 17 26 25 35 28 23
internal_value=0.00303769 -0.00658171 0.0172216 -0.0180002 -0.0280002 -0.0133571
internal_weight=27.836 22.779 7.38466 15.3943 11.9177 7.03108
internal_count=175 154 51 103 86 51
is_linear=0
shrinkage=0.05


Tree=105
num_leaves=7
num_cat=0
split_feature=0 0 6 6 2 0
split_gain=3.77285 4.53497 3.78597 2.46081 3.1709 1.0617
threshold=0.44500000000000006 0.6150000000000001 0.42500000000000004 0.32500000000000007 0.88500000000000012 0.91500000000000015
decision_type=2 2 2 2 2 2
left_child=-1 2 -2 4 -3 -6
right_child=1 3 -4 -5 5 -7
leaf_value=-0.050203402296083888 -0.0068991005133795819 0.043526298847825939 0.050656911965450892 -0.037504452146345062 -0.036403445079572189 0.0045804729006435584
leaf_weight=3.7877899259328869 4.9064488634467143 3.1112048402428645 6.8407208472490311 6.662105403840541 3.5241561159491539 2.8647359907627106
leaf_count=25 23 17 27 36 23 24
internal_value=-0.00337851 0.00297645 0.0266175 -0.0142065 0.00213152 -0.0180265
internal_weight=31.6972 27.9094 11.7472 16.1622 9.5001 6.38889
internal_count=175 150 50 100 64 47
is_linear=0
shrinkage=0.05


Tree=106
num_leaves=8
num_cat=0
split_feature=4 5 1 1 1 5 0
split_gain=5.56582 6.16559 2.28751 2.1914 3.57651 2.80325 0.00141544
threshold=0.070000000000000021 0.44500000000000006 0.69000000000000006 0.85500000000000009 0.74500000000000011 0.27500000000000008 0.50500000000000012
decision_type=2 2 2 2 2 2 2
left_child=-1 3 6 4 5 -2 -3
right_child=1 2 -4 -5 -6 -7 -8
leaf_value=-0.049270410970643316 -0.012293563957034253 -0.046221830117766885 0.0064681615237810108 -0.0021227150903353979 0.066163196171762931 0.042854185727881813 -0.047920515103386317
leaf_weight=4.4136862531304351 4.4637688547372871 2.4058119878172857 3.3583955019712448 5.1852653771638861 5.8449291288852683 4.7633184492588043 2.5013385862112045
leaf_count=32 22 23 17 22 20 20 19
internal_value=0.00298018 0.0110656 -0.0253273 0.0259149 0.0355607 0.0161755 -0.0470877
internal_weight=32.9365 28.5228 8.26555 20.2573 15.072 9.22709 4.90715
internal_count=175 143 59 84 62 42 42
is_linear=0
shrinkage=0.05


Tree=107
num_leaves=7
num_cat=0
split_feature=6 2 1 1 7 3
split_gain=9.5556 4.54861 1.71657 0.374862 0.306341 0.00333224
threshold=0.39000000000000007 0.96500000000000008 0.7350000000000001 0.89500000000000013 0.8650000000000001 0.68500000000000016
decision_type=2 2 2 2 2 2
left_child=1 2 -1 -4 -2 -6
right_child=4 -3 3 -5 5 -7
leaf_value=0.018473369050046564 -0.028806370476569976 0.050775967107303505 -0.025458198563536111 -0.0035527802037695587 -0.047622503154226239 -0.049894595442266793
leaf_weight=8.3473539948463493 2.7673942819237691 7.0732790380716315 3.7755626589059821 4.0458966791629791 3.4855421334505081 3.0048786625266075
leaf_count=36 25 27 22 18 28 19
internal_value=0.000222373 0.0173333 0.00270339 -0.0141269 -0.0427354 -0.0486744
internal_weight=32.4999 23.2421 16.1688 7.82146 9.25782 6.49042
internal_count=175 103 76 40 72 47
is_linear=0
shrinkage=0.05


Tree=108
num_leaves=1
num_cat=0
split_feature=
split_gain=
threshold=
decision_type=
left_child=
right_child=
leaf_value=0
leaf_weight=
leaf_count=210
internal_value=
internal_weight=
internal_count=
is_linear=0
shrinkage=1


Tree=109
num_leaves=6
num_cat=0
split_feature=5 4 1 3 6
split_gain=4.99435 2.72291 1.5813 1.1071 0.00425742
threshold=0.55500000000000016 0.45500000000000007 0.58500000000000008 0.8650000000000001 0.35500000000000004
decision_type=2 2 2 2 2
left_child=1 2 -1 4 -4
right_child=-2 -3 3 -5 -6
leaf_value=0.0016957649387104737 0.040647317853423598 0.019178389039003041 -0.046739599517588042 -0.0090529588712130599 -0.049368980458177669
leaf_weight=3.9298684149980607 5.9212827011942855 4.9119950681924811 3.2585874609649164 2.5930770635604858 2.9181709811091423
leaf_count=27 26 30 31 25 20
internal_value=0.000922336 -0.0124337 -0.0246607 -0.0364713 -0.0479818
internal_weight=23.533 17.6117 12.6997 8.76984 6.17676
internal_count=159 133 103 76 51
is_linear=0
shrinkage=0.05


Tree=110
num_leaves=6
num_cat=0
split_feature=3 4 1 1 6
split_gain=2.39016 1.52972 2.92919 2.78538 1.40393
threshold=0.44500000000000006 0.10500000000000002 0.71500000000000008 0.83000000000000007 0.43500000000000005
decision_type=2 2 2 2 2
left_child=-1 -2 4 -4 -3
right_child=1 2 3 -5 -6
leaf_value=0.032684664115507835 0.021596017912827035 -0.04907925770769353 0.048948040439436458 -0.017689137586653639 -0.0059216591913392388
leaf_weight=6.406860955059531 4.8412895202636745 4.6134854629635793 3.0271356999874115 3.2536817789077759 3.1855310425162315
leaf_count=28 35 33 21 24 18
internal_value=0.00628894 -0.00264889 -0.0109854 0.0144277 -0.0314514
internal_weight=25.328 18.9211 14.0798 6.28082 7.79902
internal_count=159 131 96 45 51
is_linear=0
shrinkage=0.05


Tree=111
num_leaves=6
num_cat=0
split_feature=4 3 1 4 1
split_gain=2.8062 3.76702 6.47441 1.14231 0.46616
threshold=0.12500000000000003 0.47500000000000003 0.65500000000000014 0.27500000000000008 0.80500000000000016
decision_type=2 2 2 2 2
left_child=4 -2 -3 -4 -1
right_child=1 2 3 -5 -6
leaf_value=-0.041653825226208543 -0.025456451013355565 0.053722701100668006 0.013686792456606223 -0.022664940847762109 -0.013873434965048765
leaf_weight=3.127384319901469 5.6190299019217518 8.2244966924190539 3.6633126735687238 5.2700415402650833 2.9200279861688614
leaf_count=16 33 33 21 32 24
internal_value=0.00203707 0.0100758 0.0217123 -0.00775814 -0.0282399
internal_weight=28.8243 22.7769 17.1579 8.93335 6.04741
internal_count=159 119 86 53 40
is_linear=0
shrinkage=0.05


Tree=112
num_leaves=6
num_cat=0
split_feature=1 1 4 3 4
split_gain=3.29784 4.61702 2.29508 1.49764 1.24491
threshold=0.59500000000000008 0.95500000000000007 0.40500000000000008 0.53500000000000014 0.15500000000000003
decision_type=2 2 2 2 2
left_child=3 2 4 -1 -2
right_child=1 -3 -4 -5 -6
leaf_value=-0.0065100105223340329 0.050370485712644034 -0.040579659508144413 -0.0092998359968988129 -0.049844383045466366 0.017203415107783764
leaf_weight=3.4969034641981143 4.5053618550300651 4.2727513164281836 5.5439357906579962 4.638493724167347 7.6046808287501335
leaf_count=26 19 28 23 30 33
internal_value=-0.00402994 0.00605741 0.0173449 -0.0312176 0.0295427
internal_weight=30.0621 21.9267 17.654 8.1354 12.11
internal_count=159 103 75 56 52
is_linear=0
shrinkage=0.05


Tree=113
num_leaves=7
num_cat=0
split_feature=6 7 1 6 0 7
split_gain=8.10325 5.54034 3.52691 1.01804 0.00633529 0.000271491
threshold=0.39000000000000007 0.91500000000000015 0.94500000000000006 0.25500000000000006 0.6150000000000001 0.8650000000000001
decision_type=2 2 2 2 2 2
left_child=1 3 -3 -1 5 -2
right_child=4 2 -4 -5 -6 -7
leaf_value=-0.040453212954522651 -0.046187191189221738 0.0082013511908737274 0.059765926074365011 -0.0043652637676571803 -0.04952778070705513 -0.046953328169529823
leaf_weight=3.7189414203167024 2.0893770158290854 7.3588897883892042 6.0362288504838943 4.1184385716915131 3.0925982892513275 2.5893917083740234
leaf_count=20 20 32 23 22 20 22
internal_value=-0.00408773 0.0119012 0.0314378 -0.0214895 -0.0477718 -0.0466112
internal_weight=29.0039 21.2325 13.3951 7.83738 7.77137 4.67877
internal_count=159 97 55 42 62 42
is_linear=0
shrinkage=0.05


Tree=114
num_leaves=1
num_cat=0
split_feature=
split_gain=
threshold=
decision_type=
left_child=
right_child=
leaf_value=0
leaf_weight=
leaf_count=210
internal_value=
internal_weight=
internal_count=
is_linear=0
shrinkage=1


Tree=115
num_leaves=7
num_cat=0
split_feature=1 4 6 0 0 3
split_gain=6.54825 4.12616 3.33748 4.63643 0.00221248 0.00078708
threshold=0.39500000000000007 0.45500000000000007 0.35500000000000004 0.63500000000000012 0.6150000000000001 0.7350000000000001
decision_type=2 2 2 2 2 2
left_child=-1 2 4 -4 -2 -6
right_child=1 -3 3 -5 5 -7
leaf_value=0.070767197207888308 -0.047969554894910837 0.028479619467354635 -0.033288628088389165 0.036352171928144723 -0.046750427937394687 -0.045443130275888532
leaf_weight=3.134383067488673 1.9041770622134269 6.1641829535365096 5.0918132662773115 4.5041469261050224 1.8967983722686765 2.9296614043414593
leaf_count=11 15 36 31 25 17 35
internal_value=0.00306142 -0.00637426 -0.0195335 -0.000600665 -0.0465263 -0.0459569
internal_weight=25.6252 22.4908 16.3266 9.59596 6.73064 4.82646
internal_count=170 159 123 56 67 52
is_linear=0
shrinkage=0.05


Tree=116
num_leaves=7
num_cat=0
split_feature=3 4 2 2 4 6
split_gain=3.20519 2.29535 4.26185 1.28303 0.267367 0.00284286
threshold=0.45500000000000007 0.10500000000000002 0.95500000000000007 0.82500000000000007 0.40500000000000008 0.36500000000000005
decision_type=2 2 2 2 2 2
left_child=-1 -2 3 -3 5 -5
right_child=1 2 -4 4 -6 -7
leaf_value=0.027329818382096596 0.020561188556054599 -0.0057478258732613172 0.032059099255777733 -0.047282307190244954 -0.029296485034330019 -0.049337016528037549
leaf_weight=6.8729531913995769 4.1881218105554607 3.0493630319833747 3.0337441787123671 4.0461207777261716 2.5856999680399895 2.8828857988119125
leaf_count=31 31 15 20 34 19 20
internal_value=-0.00208612 -0.0123042 -0.0211288 -0.0339716 -0.0430171 -0.0481372
internal_weight=26.6589 19.7859 15.5978 12.5641 9.51471 6.92901
internal_count=170 139 108 88 73 54
is_linear=0
shrinkage=0.05


Tree=117
num_leaves=6
num_cat=0
split_feature=4 4 4 0 7
split_gain=2.72783 4.18324 4.68028 3.15479 0.624394
threshold=0.115 0.32500000000000007 0.55500000000000016 0.66500000000000015 0.91500000000000015
decision_type=2 2 2 2 2
left_child=-1 3 4 -2 -3
right_child=1 2 -4 -5 -6
leaf_value=-0.032740292744550356 0.050741373515011456 -0.02315931887201416 0.031978554428989163 0.001717066444546507 -0.050789600091783842
leaf_weight=5.1117355376482037 6.7511530593037623 4.9926845580339414 3.858706682920455 6.3854726031422615 3.4628730118274689
leaf_count=36 28 29 19 37 21
internal_value=0.000590855 0.00728532 -0.0136516 0.0269116 -0.034475
internal_weight=30.5626 25.4509 12.3143 13.1366 8.45556
internal_count=170 134 69 65 50
is_linear=0
shrinkage=0.05


Tree=118
num_leaves=6
num_cat=0
split_feature=2 3 1 0 4
split_gain=5.02184 5.17055 2.92424 2.24392 0.701014
threshold=0.84500000000000008 0.80500000000000016 0.65500000000000014 0.74500000000000011 0.17500000000000002
decision_type=2 2 2 2 2
left_child=-1 2 -2 -4 -3
right_child=1 4 3 -5 -6
leaf_value=-0.042070453255890643 -0.0017893323545542736 -0.036609879318046538 0.059958786106742004 0.016715223678019867 -0.0070745706936557254
leaf_weight=5.4268049821257582 6.5057413727045121 4.2732104659080488 6.437004476785658 5.6181592345237732 3.7916204482316971
leaf_count=38 38 29 25 22 18
internal_value=0.00176738 0.0107023 0.0252263 0.0398057 -0.0227241
internal_weight=32.0525 26.6257 18.5609 12.0552 8.06483
internal_count=170 132 85 47 47
is_linear=0
shrinkage=0.05


Tree=119
num_leaves=6
num_cat=0
split_feature=5 6 1 6 0
split_gain=8.60267 2.96216 3.27835 0.334762 0.00515052
threshold=0.10500000000000002 0.39000000000000007 0.71500000000000008 0.58500000000000008 0.63500000000000012
decision_type=2 2 2 2 2
left_child=-1 2 -2 4 -3
right_child=1 3 -4 -5 -6
leaf_value=0.046425977342246356 0.017661115915248358 -0.046385741593354068 -0.030205140894441707 -0.025560853486343273 -0.049308726567221343
leaf_weight=6.7189420610666302 7.8361891210079211 3.1826087236404401 6.5815742760896683 2.3587985038757324 2.8626617714762688
leaf_count=27 35 30 37 22 19
internal_value=-0.00330197 -0.0179423 -0.00418938 -0.0415364 -0.0477699
internal_weight=29.5408 22.8218 14.4178 8.40407 6.04527
internal_count=170 143 72 71 49
is_linear=0
shrinkage=0.05


Tree=120
num_leaves=1
num_cat=0
split_feature=
split_gain=
threshold=
decision_type=
left_child=
right_child=
leaf_value=0
leaf_weight=
leaf_count=210
internal_value=
internal_weight=
internal_count=
is_linear=0
shrinkage=1


Tree=121
num_leaves=8
num_cat=0
split_feature=0 5 6 5 7 5 4
split_gain=4.35319 2.92609 2.82259 2.55975 2.12777 1.28537 0.00241209
threshold=0.31000000000000005 0.59500000000000008 0.25500000000000006 0.41000000000000009 0.92500000000000016 0.35500000000000004 0.29500000000000004
decision_type=2 2 2 2 2 2 2
left_child=-1 2 3 6 5 -4 -2
right_child=1 -3 4 -5 -6 -7 -8
leaf_value=0.05855920100037465 -0.045262977658115731 -0.056322015889117352 0.018263305292164186 0.018434590207993703 0.041310489413464845 -0.023405844284136612 -0.047490844914449763
leaf_weight=2.6259595751762417 3.1301614716649118 2.9029327705502501 3.5903853476047498 2.1935222595930099 4.2060835212469101 3.8195604607462883 1.9856547638773916
leaf_count=9 39 14 23 15 24 27 16
internal_value=-0.00226306 -0.00958002 -0.00241034 -0.0267526 0.012907 -0.00321564 -0.0461277
internal_weight=24.4543 21.8283 18.9254 7.30934 11.616 7.40995 5.11582
internal_count=167 158 144 70 74 50 55
is_linear=0
shrinkage=0.05


Tree=122
num_leaves=7
num_cat=0
split_feature=7 5 1 0 6 3
split_gain=9.53372 1.01305 1.16242 0.829234 0.757929 0.00582039
threshold=0.87500000000000011 0.10500000000000002 0.80500000000000016 0.50500000000000012 0.48500000000000004 0.58500000000000008
decision_type=2 2 2 2 2 2
left_child=3 -2 4 -1 5 -3
right_child=1 2 -4 -5 -6 -7
leaf_value=0.051765728099417263 0.0006465288226048711 -0.050712040360973445 -0.0063173248553524755 0.02138590844368278 -0.01909302076503323 -0.047725919867570576
leaf_weight=5.1205755025148409 3.1003912165761021 2.6134647727012617 3.5229203999042502 4.0014841929078102 3.0910183042287827 4.3445825353264809
leaf_count=20 27 17 26 22 19 36
internal_value=-0.00265582 -0.0251405 -0.0310312 0.0384393 -0.0396953 -0.0488475
internal_weight=25.7944 16.6724 13.572 9.12206 10.0491 6.95805
internal_count=167 125 98 42 72 53
is_linear=0
shrinkage=0.05


Tree=123
num_leaves=6
num_cat=0
split_feature=5 2 0 1 3
split_gain=4.10732 5.26037 1.64478 4.45259 2.76491
threshold=0.12500000000000003 0.81500000000000006 0.80500000000000016 0.60500000000000009 0.67500000000000016
decision_type=2 2 2 2 2
left_child=-1 -2 3 -3 -5
right_child=1 2 -4 4 -6
leaf_value=-0.038647942767209578 -0.039794992601946577 0.040869900217677897 0.049459305345358577 0.019921315812872424 -0.037570004006123196
leaf_weight=4.2939006760716465 3.8503956049680736 8.9555612057447487 4.7910779714584342 4.0392175018787366 4.3365471884608269
leaf_count=33 24 37 24 18 31
internal_value=0.00665226 0.0141414 0.023529 0.0163609 -0.00984478
internal_weight=30.2667 25.9728 22.1224 17.3313 8.37576
internal_count=167 134 110 86 49
is_linear=0
shrinkage=0.05


Tree=124
num_leaves=7
num_cat=0
split_feature=1 1 2 5 3 4
split_gain=3.78106 3.71542 2.22957 2.15804 1.13207 0.989832
threshold=0.59500000000000008 0.85500000000000009 0.93500000000000016 0.39500000000000007 0.57500000000000007 0.17500000000000002
decision_type=2 2 2 2 2 2
left_child=4 2 3 -2 -1 -3
right_child=1 5 -4 -5 -6 -7
leaf_value=-0.012375326850240101 0.060472752589299295 -0.04000798975491137 -0.0034948558497089111 0.013240606942402582 -0.049364121861558162 -0.002294061426349804
leaf_weight=4.1555591300129908 4.9095304757356661 3.4939539059996596 5.158453717827796 4.7661126554012299 4.118925429880619 3.4653408080339432
leaf_count=34 18 26 20 26 28 15
internal_value=-0.00201272 0.00891257 0.023053 0.0372067 -0.0307878 -0.0212286
internal_weight=30.0679 21.7934 14.8341 9.67564 8.27448 6.95929
internal_count=167 105 64 44 62 41
is_linear=0
shrinkage=0.05


Tree=125
num_leaves=6
num_cat=0
split_feature=2 4 4 4 2
split_gain=7.61364 6.65495 2.43579 5.92933 1.41655
threshold=0.94500000000000006 0.12500000000000003 0.24500000000000002 0.15500000000000003 0.85500000000000009
decision_type=2 2 2 2 2
left_child=2 -2 3 -1 -4
right_child=1 -3 4 -5 -6
leaf_value=-0.041926403632186936 0.069006077827477016 -0.0083505136128693268 -0.014162555750791226 0.042080587450447994 -0.0529283266681621
leaf_weight=4.2834497541189247 5.8089454472064954 5.332582451403141 3.9303961098194105 4.1215121895074844 5.8849560394883156
leaf_count=26 22 29 29 25 36
internal_value=-0.000578185 0.0319815 -0.0204881 -0.000732185 -0.0374052
internal_weight=29.3618 11.1415 18.2203 8.40496 9.81535
internal_count=167 51 116 51 65
is_linear=0
shrinkage=0.05


Tree=126
num_leaves=1
num_cat=0
split_feature=
split_gain=
threshold=
decision_type=
left_child=
right_child=
leaf_value=0
leaf_weight=
leaf_count=210
internal_value=
internal_weight=
internal_count=
is_linear=0
shrinkage=1


Tree=127
num_leaves=6
num_cat=0
split_feature=2 6 7 2 7
split_gain=4.66921 2.70893 2.82255 1.20725 0.251837
threshold=0.93500000000000016 0.40500000000000008 0.88500000000000012 0.89500000000000013 0.94500000000000006
decision_type=2 2 2 2 2
left_child=1 3 -3 -1 -2
right_child=4 2 -4 -5 -6
leaf_value=-0.033896235947017787 -0.04872344180357107 0.0029928377934556965 0.057023052398952161 0.011264447340511335 -0.02805835684330258
leaf_weight=3.6304461956024197 3.7549955546855918 5.4643241763114911 4.334624744951725 2.4981422089040279 2.4273205697536469
leaf_count=29 30 28 22 22 24
internal_value=-0.00372928 0.010586 0.0268934 -0.0154878 -0.0406099
internal_weight=22.1099 15.9275 9.79895 6.12859 6.18232
internal_count=155 101 50 51 54
is_linear=0
shrinkage=0.05


Tree=128
num_leaves=6
num_cat=0
split_feature=1 0 6 4 7
split_gain=3.68677 4.24005 3.56307 1.90309 0.774074
threshold=0.80500000000000016 0.7350000000000001 0.6100000000000001 0.37500000000000006 0.92500000000000016
decision_type=2 2 2 2 2
left_child=1 2 3 -1 -2
right_child=4 -3 -4 -5 -6
leaf_value=-0.039471585196153791 -0.010204136639097663 0.049449115085232705 0.037804113481234358 0.0091311904016343377 -0.047174859407611784
leaf_weight=5.121167212724691 2.4769241437315932 5.8731313571333876 3.8273413181304923 3.3196622133255005 3.3049101755023003
leaf_count=39 17 35 14 21 29
internal_value=0.00343177 0.0145129 -0.00221214 -0.0203568 -0.0313367
internal_weight=23.9231 18.1413 12.2682 8.44083 5.78183
internal_count=155 109 74 60 46
is_linear=0
shrinkage=0.05


Tree=129
num_leaves=6
num_cat=0
split_feature=1 1 4 3 1
split_gain=2.42033 2.75652 2.51896 1.88946 1.54256
threshold=0.62500000000000011 0.58500000000000008 0.32500000000000007 0.58500000000000008 0.85500000000000009
decision_type=2 2 2 2 2
left_child=1 3 4 -1 -2
right_child=2 -3 -4 -5 -6
leaf_value=-0.022462622012133004 -0.020235486280597216 0.047762590869845564 -0.050880866742218138 0.019569981071413771 0.020806230042861619
leaf_weight=4.9209946691989916 5.0912416204810125 4.2906627655029288 3.6396191641688338 5.8544760942459106 4.1602512076497078
leaf_count=29 32 18 23 24 29
internal_value=0.000261654 0.01387 -0.0156427 0.000374326 -0.00177967
internal_weight=27.9572 15.0661 12.8911 10.7755 9.25149
internal_count=155 71 84 53 61
is_linear=0
shrinkage=0.05


Tree=130
num_leaves=6
num_cat=0
split_feature=2 0 0 1 0
split_gain=4.20502 3.50645 5.79901 1.72357 0.716497
threshold=0.8650000000000001 0.52500000000000013 0.80500000000000016 0.7350000000000001 0.63500000000000012
decision_type=2 2 2 2 2
left_child=4 -2 3 -3 -1
right_child=1 2 -4 -5 -6
leaf_value=-0.019734315630693632 -0.034375056409512467 0.015233892223210869 -0.021691253576371083 0.053958657689857387 -0.052687632964261391
leaf_weight=3.368801116943362 3.7349808588624027 4.7284483984112757 5.9120373651385298 7.3239598572254181 3.2320886701345444
leaf_count=29 19 24 37 28 18
internal_value=-0.000925009 0.00970505 0.0188697 0.038766 -0.0358697
internal_weight=28.3003 21.6994 17.9644 12.0524 6.60089
internal_count=155 108 89 52 47
is_linear=0
shrinkage=0.05


Tree=131
num_leaves=7
num_cat=0
split_feature=7 1 6 1 2 5
split_gain=4.95958 1.92986 1.55501 2.64638 1.30526 0.000708451
threshold=0.92500000000000016 0.94500000000000006 0.43500000000000005 0.7350000000000001 0.90500000000000014 0.53500000000000014
decision_type=2 2 2 2 2 2
left_child=2 4 3 -1 -2 -4
right_child=1 -3 5 -5 -6 -7
leaf_value=0.012721076511464022 0.029438353583252058 0.049941055290260689 -0.046736623726317185 -0.039753324832484366 -0.0106041275569984 -0.045408439700495996
leaf_weight=5.7513678297400492 3.9849893823266012 4.4478333443403235 2.0635730922222129 4.1266251355409622 4.1593434885144234 1.9553386718034742
leaf_count=28 20 19 19 26 21 22
internal_value=0.000725507 0.0234539 -0.0198689 -0.0092006 0.0089885 -0.0460904
internal_weight=26.4891 12.5922 13.8969 9.87799 8.14433 4.01891
internal_count=155 60 95 54 41 41
is_linear=0
shrinkage=0.05


Tree=132
num_leaves=1
num_cat=0
split_feature=
split_gain=
threshold=
decision_type=
left_child=
right_child=
leaf_value=0
leaf_weight=
leaf_count=210
internal_value=
internal_weight=
internal_count=
is_linear=0
shrinkage=1


Tree=133
num_leaves=6
num_cat=0
split_feature=4 0 4 0 3
split_gain=2.65742 4.02053 2.23653 1.76369 2.03164
threshold=0.30500000000000005 0.59500000000000008 0.40500000000000008 0.52500000000000013 0.78500000000000014
decision_type=2 2 2 2 2
left_child=3 -2 -3 -1 -5
right_child=1 2 -4 4 -6
leaf_value=-0.051562752483798373 0.040688106404998314 0.014642702508517567 -0.047612260533397018 0.016262987327289206 -0.033946052658576226
leaf_weight=2.8542718887329128 7.1694767922162992 2.9934227243065834 2.7847857847809792 4.5628181062638742 3.6078306697309017
leaf_count=19 31 19 22 35 37
internal_value=0.000313425 0.0156749 -0.0153608 -0.0177272 -0.00590731
internal_weight=23.9726 12.9477 5.77821 11.0249 8.17065
internal_count=163 72 41 91 72
is_linear=0
shrinkage=0.05


Tree=134
num_leaves=7
num_cat=0
split_feature=6 3 2 0 0 6
split_gain=6.16764 1.40361 4.14259 1.76885 0.993231 0.490411
threshold=0.6100000000000001 0.78500000000000014 0.93500000000000016 0.75500000000000012 0.49500000000000005 0.22500000000000003
decision_type=2 2 2 2 2 2
left_child=1 3 -3 4 -1 -4
right_child=-2 2 5 -5 -6 -7
leaf_value=-0.0027298160802830158 0.068937396012402216 0.061565583651095261 -0.027309304915950849 0.010516457780435817 -0.03923715123846009 0.0032807505835270273
leaf_weight=2.9243857413530403 3.6640987694263449 3.0390215292572957 2.5854382365942001 5.6420170143246642 5.1335880681872368 2.6563473120331764
leaf_count=18 14 17 25 35 39 15
internal_value=0.00887991 -0.00113139 0.0151202 -0.0109545 -0.025988 -0.0118074
internal_weight=25.6449 21.9808 8.28081 13.7 8.05797 5.24179
internal_count=163 149 57 92 57 40
is_linear=0
shrinkage=0.05


Tree=135
num_leaves=6
num_cat=0
split_feature=2 7 1 2 3
split_gain=2.07593 2.8405 2.32794 1.87046 1.67237
threshold=0.81500000000000006 0.91500000000000015 0.62500000000000011 0.93500000000000016 0.79500000000000015
decision_type=2 2 2 2 2
left_child=-1 2 -2 -3 -5
right_child=1 3 -4 4 -6
